0.000723828	0.0360503	-0.0218536	-0.0355425	0.0179747	-0.0253753	0.0397836	0.00120518	0.0311725	9.08859e-05	-0.0157195	0.0101744	0.0292188	0.0250213	0.0309725	0.0354941	-0.0306843	-0.0138497	-0.0448383	0.0131718	0.0251523	0.0413762	0.00752816	-0.0341534	-0.0466663	-0.00363201	0.0167462	0.00858506	-0.00510652	0.0419454	0.0433187	0.0297776
-0.302153	-0.260668	-0.412113	-0.419297	-0.615646	-0.322371	0.414722	-0.359562	0.310775	0.402151	-0.361857	0.373806	-0.401846	-0.428909	-0.378794	-0.376914	-0.429138	-0.378054	0.413925	0.407838	-0.42152	0.288606	0.4282	-0.34692	0.233218	-0.406472	-0.373857	-0.370221	-0.412368	0.411296	-0.319707	0.476222
-0.443116	-0.328578	-0.368088	-0.394673	-0.510222	-0.45349	0.416504	-0.391186	0.419038	0.348888	-0.48408	0.481809	-0.388934	-0.377627	-0.37975	-0.449096	-0.415379	-0.464682	0.387428	0.400334	-0.384934	0.422071	0.345997	-0.483658	0.447991	-0.468757	-0.390472	-0.372828	-0.389742	0.414585	-0.352907	0.41815
-0.442547	-0.432961	-0.463841	-0.461925	-0.0529789	-0.38117	0.444985	-0.381909	0.434914	0.475532	-0.450496	0.447772	-0.436793	-0.407245	-0.42277	-0.350999	-0.464764	-0.439227	0.403203	0.379195	-0.375205	0.318664	0.402812	-0.382102	0.427985	-0.403309	-0.386881	-0.327539	-0.413932	0.404883	-0.271102	0.186463
-0.35469	-0.438773	-0.477897	-0.392995	0.287002	-0.395597	0.435015	-0.470806	0.522172	0.274495	-0.461687	0.407189	-0.321801	-0.447205	-0.454107	-0.42632	-0.373294	-0.433924	0.409373	0.350235	-0.430435	0.405149	0.34839	-0.485301	0.381547	-0.433421	-0.453742	-0.512651	-0.446035	0.349909	-0.534657	0.227061
-0.366337	-0.474473	-0.370936	-0.422055	-0.0938842	-0.437519	0.353995	-0.368716	0.422604	0.450581	-0.376423	0.416279	-0.349755	-0.454505	-0.448108	-0.428355	-0.423288	-0.439732	0.354283	0.375683	-0.435606	0.3748	0.392937	-0.466078	0.326522	-0.365935	-0.402108	-0.413458	-0.451655	0.437542	-0.350949	0.404295
-0.377661	-0.370408	-0.376717	-0.353436	-0.184941	-0.341055	0.401368	-0.309789	0.399564	0.376684	-0.282888	0.34121	-0.274258	-0.335026	-0.410933	-0.359441	-0.320928	-0.323605	0.38996	0.257278	-0.390357	0.351165	0.38486	-0.342176	0.370824	-0.323872	-0.325474	-0.352597	-0.338737	0.371028	-0.418918	0.252797
-0.418217	-0.387863	-0.285197	-0.322193	-0.450865	-0.455708	0.448484	-0.414115	0.328181	0.396485	-0.407893	0.381011	-0.295549	-0.452769	-0.411462	-0.41822	-0.420708	-0.400303	0.349036	0.380127	-0.340473	0.405002	0.343066	-0.389973	0.427756	-0.429923	-0.394831	-0.301368	-0.430163	0.378843	-0.332532	0.459297
-0.488159	-0.457211	-0.407568	-0.339068	-0.224849	-0.467592	0.464083	-0.410383	0.33972	0.40809	-0.464675	0.386714	-0.337705	-0.337949	-0.420704	-0.42542	-0.394273	-0.372331	0.438253	0.442611	-0.444844	0.44896	0.435233	-0.419842	0.253536	-0.340143	-0.435428	-0.463405	-0.46902	0.329857	-0.395117	0.420661
-0.423769	-0.438233	-0.373191	-0.3773	-0.399929	-0.367193	0.32986	-0.355165	0.339085	0.418212	-0.393894	0.45543	-0.411141	-0.388611	-0.453054	-0.362868	-0.436708	-0.40747	0.357824	0.436849	-0.421533	0.325169	0.40732	-0.40157	0.483328	-0.424398	-0.461641	-0.404542	-0.456441	0.356605	-0.481177	0.460771
-0.382498	-0.0544113	-0.397833	-0.470127	-0.747053	-0.41713	0.353444	-0.466749	0.408083	0.499496	-0.381821	0.399938	-0.503747	-0.441525	-0.40433	-0.436181	-0.384423	-0.303355	0.471918	0.362795	-0.348743	0.135088	0.478314	-0.312195	0.477087	-0.328224	-0.436019	-0.373932	-0.375148	0.367775	-0.220889	0.450246
-0.343127	-0.125701	-0.37946	-0.433793	-0.687447	-0.393272	0.326143	-0.395039	0.408082	0.337814	-0.401762	0.445296	-0.44526	-0.422139	-0.424634	-0.412392	-0.355405	-0.371253	0.321833	0.392245	-0.443214	0.332702	0.441683	-0.402098	0.387119	-0.384998	-0.413214	-0.429878	-0.355935	0.413438	-0.291954	0.456669
-0.379046	-0.117877	-0.339122	-0.391908	-0.701783	-0.305032	0.351364	-0.407744	0.43892	0.411934	-0.387781	0.429354	-0.358738	-0.342931	-0.336196	-0.306627	-0.324736	-0.37396	0.331012	0.442678	-0.341507	0.280621	0.429307	-0.272069	0.398935	-0.353853	-0.330801	-0.261372	-0.345403	0.412614	-0.397021	0.336204
-0.36907	-0.367787	-0.448679	-0.425051	-0.0914158	-0.415858	0.362733	-0.363226	0.389437	0.364263	-0.418685	0.359363	-0.394691	-0.36057	-0.395523	-0.441553	-0.338943	-0.462322	0.417916	0.427561	-0.456335	0.267128	0.410411	-0.322565	0.393906	-0.346682	-0.442069	-0.384094	-0.416779	0.398049	-0.364584	0.271223
-0.478751	-0.517686	-0.441995	-0.446761	-0.506915	-0.329931	0.319989	-0.358044	0.300979	0.354977	-0.439299	0.383757	-0.315604	-0.315945	-0.442035	-0.426384	-0.420747	-0.3266	0.404232	0.435242	-0.35758	0.361423	0.317513	-0.466087	0.346361	-0.449851	-0.3193	-0.376455	-0.434565	0.333493	-0.515879	0.549498
-0.454677	-0.208248	-0.430057	-0.384102	-0.45368	-0.343511	0.349521	-0.448973	0.402494	0.426115	-0.40526	0.434307	-0.392912	-0.39825	-0.351165	-0.381817	-0.38377	-0.34723	0.46076	0.47428	-0.427495	0.365549	0.410485	-0.474475	0.59276	-0.355934	-0.476524	-0.469502	-0.410536	0.475083	-0.458854	0.480262
-0.460788	-0.417954	-0.378642	-0.353331	-0.228465	-0.423304	0.459543	-0.464039	0.390424	0.498624	-0.384618	0.377378	-0.444806	-0.359079	-0.369335	-0.365144	-0.454733	-0.45383	0.375682	0.434638	-0.45026	0.347631	0.426619	-0.403799	0.302777	-0.403577	-0.39713	-0.388506	-0.3737	0.415741	-0.347731	0.347734
-0.472214	-0.391765	-0.461941	-0.400716	-0.401402	-0.447003	0.395781	-0.394077	0.42232	0.347732	-0.471688	0.424959	-0.401034	-0.37232	-0.441238	-0.426352	-0.395188	-0.398969	0.373326	0.425772	-0.455507	0.397946	0.331266	-0.438129	0.498535	-0.45075	-0.381573	-0.367531	-0.404799	0.350625	-0.44333	0.413848
-0.409164	-0.400262	-0.382132	-0.405592	-0.352624	-0.363477	0.410868	-0.377058	0.350518	0.432968	-0.39692	0.344409	-0.357721	-0.440957	-0.400388	-0.344265	-0.375642	-0.413971	0.443043	0.372005	-0.39917	0.462793	0.378714	-0.393388	0.28843	-0.371755	-0.457734	-0.427946	-0.351906	0.356048	-0.365719	0.34733
-0.434998	-0.497372	-0.360826	-0.443422	-0.359442	-0.372236	0.362804	-0.463018	0.4065	0.350764	-0.419898	0.440993	-0.380255	-0.448366	-0.420726	-0.327379	-0.433222	-0.446008	0.327616	0.432639	-0.369809	0.422947	0.392099	-0.411832	0.384801	-0.38526	-0.346646	-0.435099	-0.414838	0.445235	-0.423518	0.48098
-0.414782	-0.495492	-0.332816	-0.407785	-0.628778	-0.389132	0.36973	-0.42235	0.355198	0.349437	-0.367216	0.404667	-0.412704	-0.391736	-0.431662	-0.362429	-0.367521	-0.357174	0.365332	0.309937	-0.327506	0.30707	0.368918	-0.349151	0.497126	-0.368119	-0.424886	-0.425409	-0.356337	0.340232	-0.461913	0.473185
-0.428603	-0.532521	-0.375808	-0.37392	-0.225884	-0.470626	0.436292	-0.42328	0.46371	0.414811	-0.376739	0.376147	-0.425275	-0.362408	-0.370992	-0.452612	-0.443593	-0.447929	0.419761	0.455918	-0.402684	0.461568	0.4086	-0.355685	0.508995	-0.365695	-0.456101	-0.413444	-0.455605	0.394911	-0.448893	0.372828
-0.415363	-0.295115	-0.39987	-0.413603	-0.554461	-0.346905	0.400159	-0.388049	0.346641	0.347907	-0.421273	0.347474	-0.37822	-0.423105	-0.395588	-0.344447	-0.380696	-0.414702	0.340302	0.355869	-0.363466	0.419771	0.400594	-0.39839	0.471443	-0.324881	-0.338332	-0.336577	-0.395948	0.350228	-0.392337	0.456512
-0.446229	-0.490827	-0.358655	-0.350226	0.37016	-0.35473	0.386792	-0.433145	0.540465	0.44039	-0.37515	0.36999	-0.354736	-0.476287	-0.365474	-0.468559	-0.462674	-0.449062	0.52173	0.328118	-0.471935	0.412471	0.358499	-0.392177	0.441286	-0.475182	-0.378277	-0.483886	-0.455935	0.330701	-0.572309	0.247682
-0.238663	-0.00816702	-0.385386	-0.301848	-0.807039	-0.256401	0.433821	-0.399668	0.267108	0.184873	-0.350044	0.406644	-0.430453	-0.33714	-0.355749	-0.355455	-0.396791	-0.368267	0.372258	0.435775	-0.277917	0.220746	0.42931	-0.397001	0.194745	-0.44929	-0.310418	-0.244412	-0.381431	0.397949	-0.143685	0.227922
-0.436945	-0.48211	-0.366971	-0.49595	-0.533239	-0.427879	0.397563	-0.480954	0.430092	0.36023	-0.41571	0.416199	-0.42837	-0.432188	-0.409892	-0.398983	-0.467146	-0.406252	0.402065	0.413254	-0.508805	0.478981	0.440371	-0.386852	0.436157	-0.459504	-0.405136	-0.469318	-0.498983	0.503325	-0.424163	0.546242
-0.356153	-0.451087	-0.429452	-0.41895	-0.557029	-0.397878	0.292719	-0.419371	0.427046	0.338836	-0.372587	0.453143	-0.317233	-0.351898	-0.354435	-0.427439	-0.355919	-0.364516	0.324815	0.406934	-0.392751	0.415761	0.400611	-0.40988	0.488851	-0.415102	-0.452136	-0.483323	-0.437891	0.392192	-0.371358	0.569357
-0.406367	-0.472702	-0.475046	-0.469472	-0.029166	-0.490705	0.449575	-0.404363	0.425419	0.461184	-0.406856	0.493313	-0.428558	-0.482101	-0.449855	-0.392984	-0.460787	-0.485211	0.415182	0.395984	-0.477039	0.408248	0.414203	-0.443766	0.415434	-0.472732	-0.408478	-0.468374	-0.394377	0.413522	-0.380992	0.444284
-0.215511	-0.0701504	-0.372189	-0.366181	-0.730252	-0.357183	0.355201	-0.290363	0.177468	0.319061	-0.376536	0.367838	-0.47756	-0.303108	-0.374175	-0.33708	-0.323303	-0.353266	0.266623	0.383901	-0.271222	0.372893	0.405256	-0.308157	0.28798	-0.265961	-0.389744	-0.262824	-0.351041	0.356433	-0.310751	0.283684
-0.38848	-0.363171	-0.469064	-0.407681	-0.534079	-0.377367	0.354036	-0.452158	0.367958	0.331653	-0.479752	0.460898	-0.450211	-0.434878	-0.426023	-0.382042	-0.4734	-0.4769	0.448057	0.443238	-0.440879	0.390138	0.377498	-0.467839	0.512152	-0.462306	-0.388798	-0.424958	-0.389138	0.432753	-0.390478	0.468732
-0.375106	-0.501967	-0.384413	-0.360207	-0.266928	-0.433771	0.445052	-0.469668	0.3203	0.385604	-0.374536	0.402734	-0.463727	-0.358831	-0.324937	-0.462278	-0.408348	-0.441999	0.368273	0.396686	-0.422412	0.484224	0.446051	-0.393067	0.216688	-0.367259	-0.439195	-0.408691	-0.411279	0.41316	-0.39646	0.396958
-0.475516	-0.432399	-0.371443	-0.42343	-0.201664	-0.420637	0.432647	-0.470232	0.470295	0.381531	-0.497723	0.430725	-0.344969	-0.380586	-0.462112	-0.442503	-0.455987	-0.395768	0.453827	0.489257	-0.377288	0.475573	0.364168	-0.44508	0.404503	-0.396633	-0.404244	-0.428075	-0.456829	0.426863	-0.429256	0.308787
-0.437355	-0.51402	-0.385602	-0.438493	-0.608781	-0.415661	0.479855	-0.454794	0.464579	0.394685	-0.472074	0.438893	-0.460938	-0.473108	-0.356113	-0.463447	-0.4355	-0.487618	0.369964	0.395408	-0.42975	0.470874	0.440881	-0.433883	0.507564	-0.408554	-0.410591	-0.403715	-0.404614	0.409063	-0.336845	0.506971
-0.400946	-0.416758	-0.444052	-0.455331	-0.545207	-0.384103	0.423941	-0.460404	0.424178	0.388567	-0.414417	0.379516	-0.431885	-0.373078	-0.428407	-0.435389	-0.396848	-0.393428	0.459468	0.438813	-0.431052	0.428281	0.431521	-0.478402	0.414825	-0.377398	-0.429582	-0.37826	-0.453159	0.394923	-0.396961	0.399321
-0.435656	-0.319739	-0.446373	-0.423596	-0.449349	-0.356512	0.390046	-0.340197	0.462931	0.336439	-0.466049	0.393287	-0.421738	-0.431405	-0.475435	-0.436601	-0.434535	-0.350291	0.425769	0.374781	-0.466197	0.294697	0.439621	-0.40546	0.423982	-0.34948	-0.367254	-0.497766	-0.420901	0.331472	-0.357945	0.367423
-0.436541	-0.419187	-0.363727	-0.420123	-0.208019	-0.417242	0.458073	-0.447937	0.391394	0.473681	-0.399649	0.448654	-0.265714	-0.447461	-0.397207	-0.425573	-0.428169	-0.389748	0.43226	0.335756	-0.388464	0.353556	0.337095	-0.407894	0.236406	-0.369785	-0.405963	-0.397267	-0.444328	0.388	-0.421454	0.397462
-0.466234	-0.458142	-0.314159	-0.448858	-0.508605	-0.479491	0.366983	-0.373927	0.408647	0.225499	-0.433596	0.466573	-0.254438	-0.345961	-0.350824	-0.428879	-0.468017	-0.41655	0.468009	0.446809	-0.452234	0.458848	0.27591	-0.364019	0.479262	-0.437743	-0.369963	-0.394463	-0.484277	0.382142	-0.281187	0.389493
-0.416343	-0.457231	-0.407188	-0.411612	-0.0287037	-0.391753	0.37478	-0.420841	0.442374	0.528314	-0.46107	0.413785	-0.4452	-0.388417	-0.373868	-0.436474	-0.428404	-0.428182	0.455599	0.372096	-0.446441	0.452692	0.465554	-0.37917	0.495155	-0.476303	-0.401822	-0.402203	-0.391782	0.445801	-0.50205	0.432134
-0.402001	-0.21248	-0.442315	-0.343648	0.0147788	-0.359386	0.416502	-0.405209	0.430906	0.302588	-0.378196	0.38465	-0.425177	-0.422768	-0.347174	-0.397773	-0.432065	-0.432056	0.408061	0.335933	-0.356521	0.459806	0.36019	-0.339792	0.485156	-0.286272	-0.376967	-0.321053	-0.449688	0.429825	-0.391606	0.444272
-0.337546	-0.304306	-0.417734	-0.366519	-0.501983	-0.388132	0.32445	-0.327215	0.351533	0.335095	-0.38079	0.403658	-0.301004	-0.345242	-0.342683	-0.34066	-0.362015	-0.397241	0.346791	0.369146	-0.375673	0.369953	0.383088	-0.331088	0.326616	-0.374623	-0.379177	-0.265828	-0.333833	0.37923	-0.333288	0.324196
-0.314112	0.257031	-0.390694	-0.32541	-0.956155	-0.0820338	0.230793	-0.314976	0.196362	0.363671	-0.402147	0.380244	-0.447177	-0.336338	-0.22147	-0.314413	-0.417295	-0.291293	0.347223	0.370401	-0.377678	0.289939	0.474714	-0.474878	-0.256127	-0.284067	-0.349611	-0.170444	-0.394145	0.298842	0.0148938	-0.0601098
-0.417825	-0.426094	-0.387343	-0.388401	-0.39763	-0.452565	0.394855	-0.43854	0.411734	0.471415	-0.473836	0.410076	-0.428417	-0.44064	-0.475194	-0.490594	-0.453014	-0.475432	0.458999	0.443088	-0.488353	0.403746	0.450467	-0.40107	0.344598	-0.365471	-0.453091	-0.379964	-0.393085	0.484247	-0.399535	0.359454
-0.353138	-0.54977	-0.376485	-0.438677	-0.356867	-0.425863	0.459832	-0.473645	0.465236	0.457617	-0.420156	0.395009	-0.391769	-0.458405	-0.457144	-0.346771	-0.3834	-0.408869	0.376652	0.396525	-0.458489	0.366931	0.388189	-0.41363	0.451344	-0.395833	-0.394392	-0.447024	-0.441299	0.452807	-0.395246	0.341829
-0.451706	-0.254183	-0.338433	-0.401434	-0.620227	-0.435627	0.39608	-0.413985	0.434404	0.381836	-0.399259	0.397532	-0.478403	-0.380191	-0.459667	-0.402969	-0.353591	-0.35883	0.454722	0.425178	-0.375828	0.35878	0.412647	-0.403447	0.509359	-0.4189	-0.412095	-0.36769	-0.425547	0.431041	-0.416836	0.413994
-0.387944	-0.361162	-0.41007	-0.456338	-0.601508	-0.47022	0.406117	-0.375402	0.411942	0.446253	-0.38523	0.419556	-0.442671	-0.428713	-0.359887	-0.457977	-0.434029	-0.419553	0.348017	0.387006	-0.387795	0.387873	0.362747	-0.390884	0.452293	-0.416955	-0.445205	-0.362235	-0.438935	0.452758	-0.309217	0.37238
-0.412626	-0.458933	-0.379872	-0.445172	-0.178307	-0.507044	0.484631	-0.410271	0.329347	0.285755	-0.462005	0.490424	-0.435025	-0.406676	-0.389171	-0.414793	-0.488387	-0.430775	0.383867	0.498214	-0.377973	0.506658	0.381754	-0.495371	0.515223	-0.47712	-0.408132	-0.419051	-0.441789	0.434149	-0.286338	0.489209
-0.337685	-0.159686	-0.435533	-0.393077	-0.745749	-0.27743	0.344177	-0.407384	0.297785	0.293112	-0.388067	0.420007	-0.445959	-0.347221	-0.370551	-0.413991	-0.363352	-0.353422	0.3846	0.451814	-0.447347	0.449978	0.36463	-0.40153	0.344802	-0.40239	-0.405271	-0.372256	-0.46114	0.369378	-0.30584	0.204727
-0.449261	-0.216439	-0.363463	-0.454495	-0.134047	-0.432905	0.456302	-0.393939	0.379444	0.542166	-0.463152	0.392108	-0.508211	-0.387313	-0.433774	-0.434843	-0.350578	-0.388042	0.408629	0.361062	-0.420664	0.32627	0.489207	-0.340069	0.411142	-0.479987	-0.414137	-0.351567	-0.436574	0.38576	-0.475881	0.406469
-0.36208	-0.490192	-0.391479	-0.41889	-0.139072	-0.405552	0.397768	-0.386901	0.451046	0.333648	-0.428658	0.439858	-0.324223	-0.35716	-0.412917	-0.468175	-0.382219	-0.455688	0.423144	0.382398	-0.397126	0.334865	0.4083	-0.354994	0.408616	-0.43837	-0.427	-0.38888	-0.462476	0.451404	-0.394969	0.403181
-0.39444	-0.480056	-0.386033	-0.375594	-0.309006	-0.408951	0.453363	-0.467489	0.386917	0.356285	-0.467438	0.480041	-0.454002	-0.416067	-0.431017	-0.446334	-0.416069	-0.374855	0.45897	0.39125	-0.38601	0.46994	0.396897	-0.376831	0.474265	-0.39774	-0.433747	-0.371829	-0.376518	0.448556	-0.441194	0.422265
-0.509383	-0.540132	-0.442963	-0.396918	-0.21871	-0.528733	0.43778	-0.462186	0.392133	0.330924	-0.455512	0.433194	-0.410367	-0.4152	-0.451277	-0.392898	-0.470651	-0.43432	0.409835	0.488223	-0.478418	0.49106	0.390401	-0.509781	0.247339	-0.423518	-0.506031	-0.47596	-0.462061	0.438455	-0.363029	0.33773
-0.457447	-0.259438	-0.344072	-0.394567	-0.535632	-0.472965	0.33176	-0.384452	0.333281	0.412566	-0.377549	0.381586	-0.326475	-0.401527	-0.422559	-0.376313	-0.433969	-0.458	0.354485	0.402989	-0.422995	0.427036	0.432053	-0.38855	0.49407	-0.41476	-0.480633	-0.376888	-0.430569	0.425202	-0.326286	0.508277
-0.439895	-0.536126	-0.50753	-0.341126	0.0308148	-0.417248	0.38571	-0.451983	0.404649	0.494445	-0.417735	0.419606	-0.355798	-0.512147	-0.392736	-0.471251	-0.436644	-0.398932	0.495203	0.318177	-0.394714	0.371697	0.424962	-0.405397	0.240251	-0.365315	-0.48019	-0.46449	-0.455719	0.448339	-0.389523	0.241734
-0.387341	-0.0851449	-0.338741	-0.484738	-0.878304	-0.311332	0.381662	-0.359052	0.376408	0.512438	-0.455511	0.41243	-0.534791	-0.453925	-0.345672	-0.475005	-0.444499	-0.41137	0.442954	0.496459	-0.481101	0.401905	0.443818	-0.411372	0.27046	-0.360105	-0.399568	-0.346955	-0.4603	0.52114	-0.178232	0.303642
-0.383653	-0.393242	-0.426129	-0.395324	-0.369134	-0.434705	0.409876	-0.376977	0.462922	0.353837	-0.383277	0.466951	-0.46199	-0.427006	-0.440827	-0.430727	-0.45988	-0.410248	0.357713	0.439816	-0.469065	0.436194	0.403007	-0.392079	0.419879	-0.374965	-0.435024	-0.456606	-0.414045	0.448164	-0.442277	0.277688
-0.398767	-0.321515	-0.336311	-0.411183	-0.676114	-0.470771	0.482343	-0.379063	0.385217	0.453509	-0.39213	0.405953	-0.411782	-0.437538	-0.423518	-0.473402	-0.389517	-0.39871	0.380111	0.465393	-0.4283	0.395124	0.468855	-0.462233	0.400784	-0.402376	-0.418322	-0.406683	-0.486412	0.388332	-0.327398	0.483025
-0.48781	-0.433569	-0.368804	-0.430022	-0.065829	-0.467467	0.454591	-0.395579	0.465318	0.461434	-0.451952	0.491269	-0.344701	-0.506224	-0.391899	-0.494568	-0.420626	-0.392144	0.513222	0.365349	-0.417355	0.422143	0.431616	-0.401432	0.418046	-0.39614	-0.47403	-0.46858	-0.39352	0.394359	-0.423637	0.369268
-0.405638	-0.439274	-0.436666	-0.407741	0.00965393	-0.380533	0.428898	-0.474409	0.364315	0.322513	-0.388057	0.398205	-0.358972	-0.468197	-0.420887	-0.419986	-0.348287	-0.374616	0.450495	0.311075	-0.431739	0.308363	0.37794	-0.449865	0.449833	-0.441492	-0.439416	-0.424582	-0.387356	0.398747	-0.465312	0.388016
-0.212381	0.123292	-0.290149	-0.341815	-0.769004	-0.219263	0.294	-0.327078	0.253157	0.350517	-0.309463	0.304952	-0.439004	-0.349972	-0.325298	-0.330424	-0.363578	-0.367433	0.316247	0.330383	-0.377912	0.341522	0.391535	-0.251329	0.133146	-0.304479	-0.361573	-0.274867	-0.398875	0.295484	-0.140927	0.358455
-0.466537	-0.464511	-0.370745	-0.400041	-0.366276	-0.414378	0.506843	-0.409983	0.410175	0.383658	-0.437987	0.39681	-0.343931	-0.391684	-0.484923	-0.414292	-0.480564	-0.486303	0.458421	0.40112	-0.467437	0.511246	0.448816	-0.417487	0.487688	-0.441877	-0.476285	-0.402658	-0.431721	0.418441	-0.394264	0.435313
-0.406112	-0.454161	-0.408125	-0.395689	-0.200637	-0.439947	0.367223	-0.468991	0.50505	0.397352	-0.488454	0.442855	-0.377731	-0.473461	-0.455453	-0.427506	-0.365664	-0.48208	0.432027	0.411427	-0.47717	0.386766	0.391067	-0.468264	0.487971	-0.474331	-0.44846	-0.40423	-0.37242	0.357108	-0.476469	0.342387
-0.4244	-0.408729	-0.334039	-0.368571	-0.237916	-0.346093	0.367575	-0.410325	0.429864	0.410042	-0.413189	0.406171	-0.430434	-0.362539	-0.322592	-0.341806	-0.423378	-0.400555	0.356329	0.414945	-0.36565	0.309932	0.309392	-0.371388	0.356517	-0.394134	-0.380121	-0.387046	-0.350867	0.355435	-0.327549	0.373474
-0.358898	-0.467189	-0.424692	-0.344942	0.19886	-0.323239	0.413637	-0.454026	0.428329	0.339583	-0.382341	0.409485	-0.337059	-0.330753	-0.353837	-0.408363	-0.334851	-0.415335	0.361785	0.306993	-0.421215	0.413705	0.403597	-0.36689	0.447269	-0.375478	-0.33975	-0.404652	-0.426965	0.401918	-0.376627	0.295435
-0.497095	-0.586049	-0.392926	-0.458766	-0.188633	-0.481282	0.489622	-0.482388	0.42846	0.457591	-0.435662	0.456461	-0.517036	-0.470265	-0.452084	-0.442135	-0.463286	-0.496894	0.472	0.456591	-0.397005	0.380328	0.471373	-0.413959	0.346994	-0.438075	-0.504098	-0.477675	-0.399121	0.379728	-0.493338	0.242986
-0.361889	-0.31275	-0.407273	-0.376591	-0.0588908	-0.446998	0.435436	-0.364831	0.365096	0.333769	-0.420568	0.3869	-0.334777	-0.354853	-0.398962	-0.394395	-0.363738	-0.381127	0.351959	0.368821	-0.350067	0.356258	0.341498	-0.439592	0.44467	-0.387237	-0.430423	-0.404928	-0.422334	0.375758	-0.33453	0.395904
-0.405883	-0.539841	-0.386447	-0.491318	-0.296311	-0.451291	0.472092	-0.457469	0.40056	0.345479	-0.383045	0.454012	-0.306356	-0.482486	-0.397964	-0.428888	-0.395121	-0.419581	0.411371	0.46831	-0.396315	0.387425	0.452027	-0.382853	0.433967	-0.390144	-0.426891	-0.459006	-0.443887	0.413054	-0.435298	0.510289
-0.378085	-0.454916	-0.408511	-0.37563	-0.606632	-0.382625	0.471871	-0.425482	0.352561	0.49623	-0.441283	0.449403	-0.405393	-0.465739	-0.447384	-0.371555	-0.386291	-0.46783	0.372589	0.4284	-0.435976	0.461534	0.406882	-0.43193	0.515198	-0.368131	-0.458898	-0.390743	-0.428216	0.3931	-0.333696	0.419252
-0.422755	-0.267435	-0.410042	-0.357654	-0.582227	-0.418881	0.425145	-0.423518	0.395856	0.341041	-0.427633	0.380779	-0.329789	-0.420169	-0.373827	-0.39908	-0.380557	-0.44258	0.408671	0.409942	-0.42521	0.414201	0.407217	-0.472139	0.364579	-0.439924	-0.384456	-0.439943	-0.443839	0.441331	-0.454931	0.436889
-0.467504	-0.344081	-0.431478	-0.460248	-0.270897	-0.478203	0.475669	-0.429349	0.418498	0.332824	-0.408102	0.447357	-0.387943	-0.421339	-0.484567	-0.435221	-0.396049	-0.417168	0.452355	0.387635	-0.392734	0.42692	0.46509	-0.374921	0.438352	-0.413178	-0.458604	-0.484795	-0.397534	0.475283	-0.418932	0.473682
-0.446509	-0.35519	-0.419986	-0.363903	-0.125737	-0.408661	0.395382	-0.377861	0.396753	0.393094	-0.394176	0.433977	-0.293914	-0.395614	-0.442132	-0.421163	-0.343446	-0.399396	0.353779	0.297145	-0.410093	0.399629	0.376849	-0.368276	0.348325	-0.304758	-0.318778	-0.350163	-0.350099	0.411405	-0.508208	0.293483
-0.368787	0.0778982	-0.371863	-0.413316	-0.889778	-0.346579	0.468865	-0.42311	0.374106	0.402091	-0.446862	0.438927	-0.533518	-0.403722	-0.368403	-0.372549	-0.362534	-0.445558	0.259262	0.527776	-0.457287	0.482352	0.385139	-0.347892	0.305573	-0.487099	-0.437803	-0.260468	-0.398978	0.524979	-0.395843	0.156317
-0.450728	-0.170792	-0.467107	-0.427964	-0.0946838	-0.443182	0.453003	-0.465818	0.465657	0.368029	-0.467325	0.387671	-0.338221	-0.443168	-0.435644	-0.464468	-0.351905	-0.390858	0.491774	0.348357	-0.459119	0.255368	0.44295	-0.37653	0.406171	-0.501904	-0.4036	-0.465837	-0.429784	0.374182	-0.555382	0.372639
-0.449892	-0.448857	-0.329575	-0.358438	-0.315538	-0.423167	0.391061	-0.47651	0.377127	0.36969	-0.45625	0.382956	-0.328231	-0.43652	-0.430732	-0.384225	-0.409821	-0.340539	0.394178	0.401942	-0.439207	0.411626	0.416645	-0.422537	0.478788	-0.412383	-0.384208	-0.432913	-0.421304	0.385459	-0.384385	0.334607
-0.383459	-0.437368	-0.466554	-0.498886	-0.686962	-0.461686	0.444692	-0.366208	0.372619	0.504796	-0.380279	0.385787	-0.421826	-0.440113	-0.483322	-0.443288	-0.432442	-0.394753	0.418767	0.425434	-0.466743	0.384299	0.485485	-0.399332	0.410704	-0.421601	-0.423772	-0.441395	-0.44809	0.416049	-0.300753	0.371414
-0.414408	-0.427194	-0.380843	-0.488739	-0.365014	-0.48752	0.510205	-0.408432	0.465962	0.338445	-0.473066	0.421208	-0.444412	-0.452575	-0.478005	-0.429019	-0.465908	-0.418634	0.408402	0.393541	-0.395547	0.39977	0.399599	-0.37514	0.340542	-0.416547	-0.444579	-0.50466	-0.503964	0.398111	-0.392081	0.3774
-0.310491	-0.55584	-0.426709	-0.443727	-0.166568	-0.2848	0.397936	-0.396894	0.459508	0.299441	-0.308728	0.300982	-0.286709	-0.441778	-0.428171	-0.438793	-0.340658	-0.377823	0.403054	0.28615	-0.346195	0.330331	0.429849	-0.425532	0.49403	-0.349985	-0.445678	-0.401756	-0.435804	0.29614	-0.279011	0.267784
-0.409051	-0.416499	-0.470367	-0.430998	-0.370503	-0.497489	0.425212	-0.486267	0.399414	0.390905	-0.460183	0.486797	-0.532374	-0.404734	-0.454732	-0.48963	-0.442686	-0.39869	0.408713	0.42298	-0.446557	0.408563	0.511986	-0.462922	0.381939	-0.424744	-0.405575	-0.403885	-0.458893	0.379196	-0.419495	0.415542
-0.455909	-0.513221	-0.413327	-0.36489	-0.0665989	-0.361038	0.402166	-0.479426	0.44077	0.491939	-0.379706	0.410375	-0.328705	-0.377696	-0.466385	-0.405759	-0.406502	-0.454943	0.471146	0.43573	-0.429162	0.425315	0.409728	-0.423613	0.373584	-0.441285	-0.478629	-0.408372	-0.471787	0.382484	-0.510319	0.238536
-0.408125	-0.384372	-0.429138	-0.421845	-0.555564	-0.418323	0.421421	-0.435576	0.418463	0.39287	-0.38072	0.464453	-0.44799	-0.416046	-0.471191	-0.458599	-0.454305	-0.363933	0.450109	0.44211	-0.430391	0.23784	0.446744	-0.35563	0.506139	-0.426315	-0.382441	-0.380858	-0.400616	0.425907	-0.352894	0.396624
-0.351548	-0.326629	-0.391058	-0.460367	-0.378983	-0.470761	0.34073	-0.461451	0.437674	0.33664	-0.360097	0.436571	-0.306952	-0.453268	-0.365043	-0.460378	-0.416984	-0.472631	0.380262	0.45779	-0.385162	0.406684	0.38479	-0.418178	0.392784	-0.391468	-0.386759	-0.393253	-0.419308	0.445175	-0.40235	0.480966
-0.466468	-0.571815	-0.366868	-0.37922	-0.107652	-0.518555	0.414112	-0.497778	0.545633	0.308659	-0.435297	0.396381	-0.394474	-0.410159	-0.456216	-0.513576	-0.394054	-0.412075	0.448725	0.299276	-0.471351	0.483649	0.445011	-0.495916	0.550386	-0.49157	-0.424188	-0.500901	-0.441669	0.428616	-0.470239	0.254567
-0.444376	-0.548273	-0.485837	-0.398467	-0.0767608	-0.473666	0.409185	-0.45879	0.503589	0.377319	-0.453924	0.415283	-0.363394	-0.391628	-0.390567	-0.398564	-0.486289	-0.432938	0.412079	0.4504	-0.456823	0.385224	0.441048	-0.424985	0.523139	-0.387299	-0.450093	-0.453832	-0.415247	0.413646	-0.489068	0.409958
-0.369797	-0.375034	-0.482905	-0.400233	-0.493812	-0.476313	0.467227	-0.364088	0.406479	0.293164	-0.442402	0.451222	-0.358102	-0.38079	-0.381602	-0.36105	-0.437011	-0.458011	0.357151	0.436592	-0.473617	0.333055	0.369633	-0.411076	0.4525	-0.47909	-0.445473	-0.357538	-0.488988	0.401214	-0.216927	0.407844
-0.452293	-0.509225	-0.418303	-0.34825	-0.411877	-0.465239	0.384173	-0.431836	0.411848	0.339074	-0.424892	0.474512	-0.457784	-0.367477	-0.416913	-0.394318	-0.421707	-0.464585	0.370947	0.392963	-0.450834	0.495025	0.45025	-0.379826	0.272182	-0.40103	-0.458243	-0.416738	-0.381427	0.433507	-0.479001	0.463321
-0.331522	-0.540536	-0.313229	-0.377854	-0.776168	-0.430138	0.36603	-0.371739	0.42708	0.328878	-0.303328	0.297934	-0.136579	-0.440408	-0.356808	-0.348726	-0.389861	-0.443179	0.349573	0.279193	-0.351117	0.455252	0.333018	-0.354567	0.316214	-0.308393	-0.404541	-0.48483	-0.276317	0.472401	-0.344417	0.365886
-0.429089	-0.396643	-0.416006	-0.40798	-0.446508	-0.369296	0.407396	-0.397898	0.358864	0.271542	-0.368244	0.45284	-0.341404	-0.367084	-0.424833	-0.400118	-0.402867	-0.444986	0.367804	0.440978	-0.445806	0.399911	0.46958	-0.364535	0.395926	-0.405413	-0.402867	-0.36249	-0.411058	0.465861	-0.212258	0.335246
-0.356963	-0.484155	-0.40994	-0.416663	-0.0960063	-0.383268	0.41865	-0.464714	0.321165	0.501826	-0.431166	0.47587	-0.299055	-0.379928	-0.426475	-0.464173	-0.455906	-0.446756	0.430079	0.4257	-0.376952	0.488465	0.418272	-0.387646	0.228473	-0.37054	-0.4151	-0.382842	-0.416456	0.453664	-0.330961	0.540782
-0.462429	-0.369238	-0.389001	-0.428037	-0.540328	-0.466247	0.33198	-0.377609	0.360832	0.351121	-0.42729	0.405635	-0.342814	-0.42025	-0.424335	-0.385601	-0.440569	-0.463736	0.455377	0.362688	-0.388022	0.396964	0.359546	-0.423441	0.41227	-0.423533	-0.451783	-0.420849	-0.378124	0.338416	-0.323357	0.32889
-0.459241	-0.465712	-0.422805	-0.335453	0.274909	-0.413987	0.441562	-0.346111	0.451492	0.419926	-0.400833	0.426024	-0.380967	-0.414045	-0.412206	-0.43666	-0.46343	-0.398457	0.499414	0.342401	-0.423407	0.389309	0.3854	-0.41838	0.420895	-0.368674	-0.368933	-0.400836	-0.415495	0.392766	-0.530071	0.389574
-0.248051	0.0326872	-0.342316	-0.323577	-0.893021	-0.12837	0.295106	-0.30634	0.105958	0.160631	-0.274266	0.347659	-0.265441	-0.360901	-0.31656	-0.328203	-0.327867	-0.280391	0.265634	0.38299	-0.355932	0.416809	0.420446	-0.385899	-0.129547	-0.361081	-0.255187	-0.266589	-0.327608	0.325634	-0.0905326	0.0384517
-0.456972	-0.341688	-0.433331	-0.45029	-0.557752	-0.352568	0.411166	-0.37369	0.366315	0.345855	-0.378611	0.468398	-0.445798	-0.316373	-0.471731	-0.356959	-0.319185	-0.351568	0.351928	0.377673	-0.444249	0.304375	0.364339	-0.334559	0.171766	-0.288347	-0.356062	-0.391663	-0.34176	0.453525	-0.341109	0.434522
-0.314071	-0.453309	-0.353775	-0.334408	-0.53828	-0.334447	0.33541	-0.338808	0.366232	0.431062	-0.437761	0.411499	-0.411383	-0.425058	-0.3309	-0.376005	-0.350114	-0.312436	0.35818	0.38431	-0.358742	0.292922	0.312714	-0.370456	0.260273	-0.309449	-0.430268	-0.325351	-0.341987	0.346394	-0.293101	0.437454
-0.336381	-0.316902	-0.303368	-0.345357	-0.430602	-0.396414	0.413292	-0.279731	0.325272	0.259274	-0.306146	0.435062	-0.269318	-0.310906	-0.38925	-0.362357	-0.478638	-0.448962	0.483636	0.389094	-0.471449	0.557763	0.433366	-0.427531	0.497591	-0.42969	-0.452658	-0.37971	-0.471058	0.362108	-0.378959	0.189614
-0.429182	-0.190296	-0.383185	-0.398885	-0.777769	-0.459775	0.479621	-0.451709	0.400465	0.384155	-0.432833	0.460603	-0.508399	-0.448919	-0.395199	-0.465847	-0.481345	-0.479303	0.395792	0.438264	-0.488738	0.466913	0.441621	-0.419399	0.340171	-0.454691	-0.495892	-0.370991	-0.415279	0.433517	-0.380145	0.204072
-0.331296	-0.445029	-0.411901	-0.378485	0.0453068	-0.418732	0.44134	-0.430051	0.477176	0.35025	-0.417986	0.394185	-0.425398	-0.440062	-0.340725	-0.378901	-0.320773	-0.382297	0.458257	0.34791	-0.346555	0.392864	0.434906	-0.358381	0.418728	-0.432147	-0.364952	-0.47348	-0.337461	0.296957	-0.501502	0.233153
-0.368786	-0.153083	-0.349452	-0.471215	-0.736038	-0.417883	0.4725	-0.378072	0.275427	0.382972	-0.345776	0.473372	-0.516669	-0.360773	-0.405231	-0.417141	-0.370985	-0.408768	0.420591	0.508842	-0.404126	0.42308	0.351801	-0.375628	0.248482	-0.400762	-0.463052	-0.342025	-0.395073	0.392493	-0.284064	0.193838
-0.37026	-0.422834	-0.340414	-0.347212	-0.358432	-0.396405	0.423925	-0.356171	0.379525	0.451533	-0.339755	0.423066	-0.388716	-0.397616	-0.337979	-0.416567	-0.343616	-0.380147	0.402896	0.452136	-0.389987	0.424448	0.35761	-0.343372	0.375981	-0.464363	-0.35321	-0.377141	-0.389018	0.374664	-0.384947	0.319755
-0.439909	-0.504668	-0.442434	-0.445298	-0.491579	-0.517067	0.487247	-0.405702	0.382129	0.357671	-0.437981	0.424643	-0.516544	-0.475213	-0.401431	-0.487795	-0.447757	-0.425501	0.462666	0.38953	-0.418202	0.443841	0.497735	-0.444277	0.384538	-0.45025	-0.481965	-0.481669	-0.46525	0.484055	-0.369907	0.385433
-0.427037	-0.437115	-0.427515	-0.463406	-0.301072	-0.49506	0.522129	-0.40601	0.448534	0.334524	-0.402533	0.414444	-0.294762	-0.487439	-0.430775	-0.41899	-0.407	-0.473995	0.499481	0.440918	-0.44722	0.346561	0.434783	-0.507049	0.430012	-0.408635	-0.477223	-0.430005	-0.497286	0.498781	-0.406383	0.505883
-0.510197	-0.546069	-0.45497	-0.357125	0.166196	-0.416086	0.461475	-0.423327	0.405468	0.525805	-0.436348	0.468231	-0.323967	-0.467188	-0.398111	-0.498441	-0.471749	-0.439111	0.47467	0.452571	-0.475918	0.431697	0.415792	-0.459029	0.284523	-0.352137	-0.447763	-0.501474	-0.419258	0.370183	-0.450223	0.338884
-0.495922	-0.518615	-0.367434	-0.482888	-0.541029	-0.504043	0.45675	-0.443047	0.390838	0.395985	-0.482488	0.454557	-0.376244	-0.423325	-0.438067	-0.480979	-0.455143	-0.4336	0.422105	0.443518	-0.386307	0.406181	0.41783	-0.406958	0.391217	-0.395026	-0.501554	-0.42651	-0.431436	0.413412	-0.268706	0.434842
-0.465565	-0.433211	-0.373111	-0.422377	-0.313516	-0.475745	0.444727	-0.416905	0.461978	0.397586	-0.432049	0.511729	-0.34478	-0.454274	-0.478023	-0.402839	-0.475199	-0.473747	0.511357	0.453318	-0.391364	0.415494	0.462255	-0.448609	0.377001	-0.471623	-0.478366	-0.389904	-0.410237	0.355744	-0.293952	0.303861
-0.49992	-0.358603	-0.402949	-0.442955	-0.558328	-0.473523	0.418746	-0.398157	0.469947	0.502421	-0.462364	0.484806	-0.457059	-0.475103	-0.391602	-0.427235	-0.40759	-0.471498	0.436657	0.437114	-0.455373	0.406504	0.415263	-0.489582	0.338172	-0.474239	-0.424154	-0.436091	-0.459309	0.462061	-0.354731	0.438665
-0.339573	-0.473295	-0.280121	-0.400585	-0.321973	-0.311171	0.339655	-0.392939	0.311106	0.446928	-0.415593	0.385235	-0.364323	-0.437004	-0.390313	-0.44694	-0.366868	-0.394269	0.375817	0.465148	-0.322844	0.459052	0.301601	-0.406681	0.46176	-0.341524	-0.35558	-0.423832	-0.443078	0.397823	-0.482895	0.330049
-0.360458	-0.267843	-0.39919	-0.508291	-0.52013	-0.390561	0.516509	-0.460026	0.370095	0.470001	-0.42959	0.444327	-0.445	-0.487329	-0.504286	-0.402443	-0.469188	-0.483351	0.452229	0.447878	-0.468103	0.433756	0.480134	-0.449643	0.492973	-0.505684	-0.425783	-0.432169	-0.442865	0.444773	-0.380814	0.389575
-0.389421	-0.385617	-0.466427	-0.381292	-0.330926	-0.491024	0.420056	-0.449554	0.415555	0.456753	-0.420886	0.408517	-0.454224	-0.484082	-0.403332	-0.391702	-0.459756	-0.403141	0.46629	0.402584	-0.44601	0.422796	0.451478	-0.456233	0.314662	-0.483429	-0.428208	-0.389333	-0.408253	0.430034	-0.346706	0.350225
-0.329318	-0.498721	-0.461613	-0.388208	-0.118771	-0.358107	0.299651	-0.321619	0.415739	0.39823	-0.408627	0.41411	-0.315363	-0.439728	-0.388128	-0.362375	-0.420779	-0.453093	0.448256	0.267537	-0.361238	0.490148	0.414496	-0.332187	0.280436	-0.372959	-0.393082	-0.35897	-0.370239	0.250086	-0.346801	0.281677
-0.490031	-0.663124	-0.25887	-0.329106	0.416443	-0.32306	0.376773	-0.301666	0.462463	0.484133	-0.338479	0.459581	-0.229095	-0.466715	-0.308385	-0.540912	-0.483838	-0.524645	0.541929	0.37933	-0.356282	0.630173	0.463135	-0.36817	0.487772	-0.47404	-0.404892	-0.233334	-0.410011	0.31849	-0.462298	0.459428
-0.439671	-0.598861	-0.374522	-0.363478	-0.386389	-0.496562	0.461733	-0.440464	0.476562	0.325559	-0.360267	0.481403	-0.479194	-0.48116	-0.45843	-0.462156	-0.463671	-0.465063	0.508356	0.49054	-0.449513	0.362737	0.445404	-0.420997	0.4115	-0.412351	-0.422504	-0.461062	-0.383664	0.409195	-0.416919	0.300282
-0.465053	-0.347806	-0.454475	-0.47978	-0.280817	-0.424595	0.41461	-0.531245	0.445931	0.326264	-0.439968	0.460731	-0.390613	-0.4337	-0.412449	-0.5059	-0.397153	-0.440255	0.391915	0.444616	-0.473011	0.40294	0.444123	-0.502907	0.483171	-0.409469	-0.521056	-0.448815	-0.4843	0.449281	-0.382661	0.434051
-0.474763	-0.378714	-0.452264	-0.447007	-0.610676	-0.460716	0.366307	-0.432116	0.492301	0.314474	-0.438829	0.414709	-0.425453	-0.456818	-0.454992	-0.407314	-0.420754	-0.441792	0.44543	0.394247	-0.366415	0.405191	0.415546	-0.336659	0.416608	-0.337105	-0.468801	-0.390296	-0.465011	0.444923	-0.402403	0.454473
-0.277794	-0.366332	-0.314003	-0.242129	0.0389707	-0.277163	0.316302	-0.386523	0.350322	0.326749	-0.29564	0.34001	-0.274612	-0.244899	-0.343526	-0.26153	-0.334011	-0.285867	0.331827	0.256483	-0.354179	0.368457	0.283556	-0.293248	0.292855	-0.332645	-0.324587	-0.299643	-0.335368	0.35446	-0.317932	0.215008
-0.44984	-0.395506	-0.443035	-0.403405	-0.253868	-0.47131	0.383208	-0.411449	0.36101	0.357056	-0.457592	0.42147	-0.422435	-0.447967	-0.368421	-0.492463	-0.432981	-0.447335	0.426893	0.350126	-0.484576	0.443984	0.389306	-0.402138	0.204028	-0.459177	-0.44183	-0.475034	-0.455883	0.46372	-0.45919	0.530688
-0.450125	-0.338154	-0.357526	-0.445965	-0.129886	-0.339277	0.467084	-0.353079	0.428434	0.438356	-0.369329	0.424815	-0.378962	-0.404964	-0.373721	-0.375966	-0.437201	-0.371736	0.441451	0.430711	-0.437342	0.374205	0.387459	-0.385282	0.371551	-0.458319	-0.402773	-0.423475	-0.461884	0.400025	-0.368503	0.420065
-0.44218	-0.414271	-0.423244	-0.365423	-0.450553	-0.413048	0.412519	-0.443601	0.440441	0.395729	-0.374788	0.421299	-0.387725	-0.406987	-0.475046	-0.456375	-0.392054	-0.414261	0.448612	0.442769	-0.450506	0.314811	0.393586	-0.424578	0.287933	-0.395308	-0.41077	-0.45747	-0.427351	0.417144	-0.378356	0.483449
-0.489592	-0.416676	-0.413257	-0.44652	-0.609729	-0.42548	0.439066	-0.48962	0.392156	0.390883	-0.361112	0.377311	-0.34183	-0.47326	-0.447295	-0.390953	-0.473103	-0.432482	0.383424	0.45411	-0.475582	0.353505	0.47043	-0.486008	0.439657	-0.344453	-0.408657	-0.380967	-0.402027	0.3583	-0.355592	0.39646
-0.440779	-0.534276	-0.433428	-0.407596	-0.0761452	-0.469288	0.498057	-0.425311	0.42784	0.440334	-0.455718	0.491873	-0.329902	-0.464627	-0.428166	-0.390143	-0.411464	-0.44922	0.470341	0.348323	-0.457905	0.413345	0.367577	-0.43998	0.383077	-0.432048	-0.431591	-0.469605	-0.49305	0.46108	-0.46553	0.390449
-0.380502	-0.503897	-0.417434	-0.3775	-0.241192	-0.349852	0.467127	-0.425037	0.392109	0.389013	-0.32988	0.436896	-0.320888	-0.462731	-0.43886	-0.351531	-0.403096	-0.37438	0.467193	0.384444	-0.400818	0.337026	0.472502	-0.453627	0.413933	-0.453919	-0.434117	-0.389617	-0.381756	0.34687	-0.383026	0.424226
-0.333762	-0.29109	-0.461269	-0.300321	-0.667485	-0.263023	0.313643	-0.40145	0.340317	0.437239	-0.25394	0.377474	-0.493549	-0.468037	-0.454195	-0.307831	-0.38705	-0.441222	0.279096	0.436776	-0.38775	0.453101	0.446133	-0.351754	0.401795	-0.281551	-0.384347	-0.400291	-0.344609	0.351118	-0.430319	0.407355
-0.462158	-0.40212	-0.389506	-0.477277	-0.655294	-0.457159	0.493555	-0.461085	0.340482	0.271737	-0.49768	0.42367	-0.352699	-0.447391	-0.448029	-0.454746	-0.49255	-0.503074	0.384336	0.427294	-0.446244	0.505977	0.397785	-0.442023	0.344183	-0.483198	-0.461503	-0.478851	-0.425953	0.439632	-0.290826	0.427095
-0.487969	-0.412808	-0.3792	-0.382	-0.363127	-0.435741	0.384732	-0.415817	0.405303	0.443524	-0.447804	0.462219	-0.384721	-0.452778	-0.478696	-0.370516	-0.426846	-0.463929	0.502326	0.398767	-0.505424	0.480436	0.421584	-0.440013	0.487864	-0.404622	-0.439289	-0.424607	-0.49625	0.422379	-0.334392	0.474972
-0.502101	-0.484431	-0.465308	-0.433201	-0.23318	-0.374318	0.480779	-0.484685	0.379964	0.50324	-0.483784	0.399895	-0.482321	-0.455913	-0.476288	-0.414042	-0.427956	-0.496035	0.4638	0.452203	-0.49341	0.43026	0.427018	-0.390121	0.369633	-0.370585	-0.44735	-0.517979	-0.446341	0.395442	-0.465217	0.354365
-0.417197	-0.424854	-0.402906	-0.438437	-0.0700228	-0.379098	0.378751	-0.445573	0.330201	0.362452	-0.339552	0.410846	-0.46428	-0.359728	-0.417155	-0.357748	-0.40828	-0.369101	0.41405	0.370893	-0.349508	0.420197	0.435311	-0.46599	0.279355	-0.325651	-0.470007	-0.314026	-0.425583	0.448385	-0.329089	0.189154
-0.434118	-0.508086	-0.46643	-0.422414	-0.559147	-0.400542	0.506814	-0.462092	0.379542	0.401791	-0.519714	0.438903	-0.470868	-0.455507	-0.443508	-0.420603	-0.381925	-0.439241	0.456518	0.458804	-0.460065	0.388655	0.488243	-0.427967	0.380015	-0.416605	-0.481686	-0.435329	-0.450282	0.412035	-0.463678	0.367043
-0.448904	-0.289519	-0.362441	-0.352782	-0.143068	-0.403666	0.410766	-0.382802	0.36017	0.44116	-0.394422	0.445405	-0.440188	-0.416619	-0.462261	-0.384816	-0.351611	-0.434644	0.427037	0.431011	-0.439874	0.420093	0.425015	-0.364914	0.497402	-0.441313	-0.3819	-0.423214	-0.356979	0.375687	-0.401176	0.435838
-0.425193	-0.480301	-0.432954	-0.31702	0.223324	-0.504314	0.321956	-0.285741	0.549238	0.361762	-0.498169	0.475858	-0.397307	-0.341955	-0.461862	-0.389999	-0.369222	-0.440872	0.433721	0.417621	-0.343819	0.179148	0.340998	-0.514865	0.362156	-0.441636	-0.445874	-0.514339	-0.413569	0.49175	-0.437955	0.42873
-0.483517	-0.34081	-0.481776	-0.486756	-0.306186	-0.424089	0.467716	-0.451428	0.436332	0.424278	-0.396002	0.439969	-0.375267	-0.422787	-0.394429	-0.501264	-0.448632	-0.448321	0.422645	0.484878	-0.451821	0.412523	0.457358	-0.470095	0.375923	-0.444015	-0.458883	-0.490744	-0.475289	0.465254	-0.31997	0.435021
-0.328373	-0.318134	-0.421236	-0.314106	-0.768207	-0.462382	0.529924	-0.304275	0.425113	0.22864	-0.368178	0.385759	-0.450996	-0.357971	-0.481823	-0.451938	-0.386869	-0.366967	0.396245	0.526259	-0.320201	0.252026	0.51031	-0.373439	0.237245	-0.424258	-0.381939	-0.30196	-0.439491	0.432717	-0.275036	0.0990451
-0.442605	-0.544546	-0.412311	-0.433311	0.085628	-0.360339	0.404679	-0.411444	0.47445	0.408916	-0.347246	0.446225	-0.384181	-0.417935	-0.359559	-0.371421	-0.463429	-0.435446	0.488244	0.441588	-0.466894	0.467969	0.40938	-0.409485	0.436903	-0.485493	-0.409913	-0.511857	-0.434073	0.448227	-0.373908	0.466513
-0.364063	-0.302294	-0.391056	-0.396424	-0.304368	-0.359338	0.364754	-0.35598	0.401368	0.318448	-0.451952	0.474918	-0.334321	-0.408828	-0.367823	-0.419355	-0.391871	-0.365846	0.438675	0.40398	-0.348631	0.458132	0.389553	-0.382287	0.247695	-0.418581	-0.355703	-0.390038	-0.411456	0.426579	-0.456416	0.420342
-0.365644	-0.261143	-0.474017	-0.402997	-0.735458	-0.3789	0.43745	-0.456917	0.43231	0.394602	-0.383202	0.4136	-0.437533	-0.380572	-0.36169	-0.449903	-0.401006	-0.46171	0.444838	0.414571	-0.397008	0.305098	0.436845	-0.370157	0.261307	-0.422437	-0.369083	-0.448934	-0.413239	0.492233	-0.444624	0.2417
-0.38072	-0.509675	-0.492322	-0.360961	-0.372546	-0.402715	0.492136	-0.418985	0.372388	0.37325	-0.435833	0.428085	-0.349537	-0.478532	-0.39831	-0.478705	-0.423366	-0.42288	0.44936	0.425831	-0.403296	0.296747	0.364845	-0.422627	0.401667	-0.462986	-0.3817	-0.491406	-0.483074	0.425404	-0.335648	0.230901
-0.395852	-0.547356	-0.508013	-0.483154	-0.0934328	-0.415293	0.416386	-0.505209	0.497252	0.447237	-0.405728	0.487937	-0.464084	-0.400286	-0.423918	-0.449158	-0.451147	-0.438898	0.440486	0.354166	-0.473428	0.488626	0.488461	-0.39455	0.50629	-0.370883	-0.493038	-0.452062	-0.375983	0.427273	-0.448521	0.337318
-0.327388	-0.255074	-0.216316	-0.21363	-0.514855	-0.282329	0.242787	-0.200653	0.293461	0.175503	-0.336661	0.222435	-0.206515	-0.241735	-0.367718	-0.293329	-0.33467	-0.257349	0.230193	0.160487	-0.324458	0.26386	0.24731	-0.246284	0.129124	-0.224562	-0.273467	-0.222316	-0.324028	0.274802	-0.379088	0.244433
-0.395441	-0.444782	-0.399109	-0.402721	-0.550887	-0.385366	0.345068	-0.421791	0.349886	0.313361	-0.429836	0.449648	-0.443442	-0.357313	-0.415317	-0.368876	-0.411254	-0.388027	0.399266	0.439076	-0.437691	0.399206	0.364008	-0.433093	0.411006	-0.386372	-0.476706	-0.35165	-0.451912	0.399176	-0.250792	0.43457
-0.334959	-0.369988	-0.384878	-0.311834	-0.236436	-0.404537	0.378065	-0.383758	0.314747	0.450638	-0.373784	0.366901	-0.266102	-0.38515	-0.421273	-0.319985	-0.354516	-0.349986	0.406336	0.374608	-0.341603	0.243801	0.387457	-0.301436	0.342226	-0.308638	-0.427724	-0.340935	-0.332288	0.419953	-0.352265	0.32794
-0.397598	-0.511105	-0.365302	-0.360977	0.196916	-0.444474	0.518608	-0.443044	0.499761	0.382916	-0.474484	0.409719	-0.224774	-0.480311	-0.352135	-0.438375	-0.445642	-0.36533	0.373469	0.514712	-0.475146	0.402455	0.447306	-0.40532	0.112917	-0.463188	-0.484966	-0.41663	-0.388247	0.512863	-0.361768	0.457682
-0.426711	-0.413394	-0.43656	-0.408939	0.100886	-0.425906	0.401972	-0.315503	0.366507	0.384989	-0.325735	0.40602	-0.343181	-0.44482	-0.344194	-0.445403	-0.392114	-0.479587	0.451115	0.300865	-0.414723	0.518635	0.5143	-0.370475	0.374315	-0.40749	-0.367721	-0.318065	-0.392993	0.377651	-0.421556	0.397485
-0.406153	-0.491236	-0.472041	-0.447561	-0.349042	-0.431007	0.445859	-0.465484	0.363672	0.341349	-0.445668	0.495043	-0.355158	-0.435832	-0.418765	-0.481241	-0.383932	-0.451028	0.389819	0.478504	-0.391975	0.363527	0.487872	-0.385693	0.284344	-0.420814	-0.46728	-0.4379	-0.502749	0.390052	-0.423778	0.532983
-0.471313	-0.420502	-0.415184	-0.425677	-0.382071	-0.407362	0.379089	-0.485192	0.449743	0.337017	-0.508756	0.502882	-0.482022	-0.470845	-0.42039	-0.403375	-0.453085	-0.472343	0.376565	0.417414	-0.380041	0.424233	0.394148	-0.376254	0.528957	-0.443996	-0.505137	-0.516657	-0.399006	0.457196	-0.379268	0.522952
-0.421477	-0.446713	-0.38887	-0.340456	-0.641154	-0.460267	0.442377	-0.393196	0.337409	0.349263	-0.379149	0.410144	-0.318374	-0.332689	-0.358503	-0.402664	-0.359566	-0.356773	0.366044	0.461926	-0.447935	0.32506	0.426508	-0.456435	0.296526	-0.472414	-0.366428	-0.380916	-0.369762	0.40853	-0.224634	0.450013
-0.496714	-0.314374	-0.468588	-0.432695	-0.301078	-0.472022	0.40171	-0.436105	0.404387	0.341402	-0.403598	0.477559	-0.388401	-0.480184	-0.406407	-0.505916	-0.410896	-0.420017	0.479918	0.432693	-0.425446	0.440417	0.466835	-0.392925	0.480623	-0.444221	-0.424026	-0.442845	-0.47549	0.43604	-0.524345	0.430974
-0.377552	-0.462171	-0.449293	-0.362826	-0.330261	-0.420608	0.441419	-0.374078	0.368772	0.387181	-0.434928	0.409153	-0.399893	-0.421272	-0.460799	-0.418659	-0.407254	-0.419604	0.434142	0.322373	-0.470058	0.483951	0.393533	-0.444386	0.463043	-0.383928	-0.381235	-0.352813	-0.402844	0.435726	-0.448971	0.169367
-0.450155	-0.411899	-0.346658	-0.415514	-0.362119	-0.426694	0.451315	-0.377893	0.339854	0.315714	-0.46566	0.473846	-0.385532	-0.401808	-0.475595	-0.369636	-0.436635	-0.441923	0.371378	0.454365	-0.439478	0.513167	0.483568	-0.405832	0.247506	-0.437426	-0.409008	-0.347358	-0.436898	0.450835	-0.306181	0.325521
-0.484647	-0.454535	-0.408568	-0.479093	-0.683784	-0.411311	0.359796	-0.486253	0.442251	0.204002	-0.450096	0.493821	-0.501628	-0.374997	-0.425603	-0.493677	-0.404339	-0.455661	0.304232	0.453906	-0.382366	0.39195	0.445249	-0.404246	0.527822	-0.35971	-0.420604	-0.502186	-0.494636	0.494819	-0.521792	0.477984
-0.39586	-0.518866	-0.452708	-0.429531	0.17174	-0.446963	0.402601	-0.439803	0.461122	0.513336	-0.456053	0.437079	-0.383124	-0.399786	-0.411693	-0.434055	-0.419154	-0.461912	0.456973	0.357954	-0.441495	0.461346	0.364812	-0.39227	0.310329	-0.348811	-0.497101	-0.519568	-0.472127	0.369569	-0.44937	0.318481
-0.402035	-0.485298	-0.416694	-0.442124	-0.274454	-0.451399	0.342584	-0.484769	0.456164	0.335259	-0.373747	0.39174	-0.41105	-0.352425	-0.364398	-0.309418	-0.392617	-0.407461	0.371942	0.353725	-0.371034	0.48023	0.324427	-0.411145	0.273096	-0.361899	-0.42406	-0.406835	-0.355734	0.392503	-0.431039	0.392763
-0.405105	-0.522624	-0.298632	-0.46497	0.177876	-0.404609	0.374434	-0.311101	0.419395	0.420745	-0.45617	0.426246	-0.385045	-0.414935	-0.436001	-0.423107	-0.344069	-0.444911	0.458018	0.327339	-0.37933	0.413175	0.40606	-0.404333	0.429471	-0.42046	-0.441936	-0.435977	-0.395649	0.425461	-0.462483	0.233631
-0.391374	-0.484019	-0.449792	-0.448233	-0.266781	-0.473662	0.407421	-0.489257	0.423854	0.478779	-0.383581	0.496647	-0.417933	-0.457486	-0.421849	-0.402523	-0.406626	-0.482156	0.441774	0.395884	-0.456651	0.438956	0.454131	-0.496388	0.495625	-0.43867	-0.456571	-0.483858	-0.445694	0.371954	-0.531396	0.381926
-0.385061	-0.306361	-0.413248	-0.423598	-0.577221	-0.399597	0.334627	-0.400867	0.388538	0.373822	-0.425493	0.380023	-0.391091	-0.355908	-0.415809	-0.311947	-0.443289	-0.339499	0.373162	0.442637	-0.339446	0.373435	0.35824	-0.314468	0.378228	-0.348234	-0.385676	-0.385428	-0.432723	0.394085	-0.362205	0.328812
-0.392663	-0.487631	-0.278034	-0.390649	-0.548182	-0.403761	0.456413	-0.343721	0.405844	0.411327	-0.351405	0.364802	-0.343915	-0.430929	-0.395753	-0.312705	-0.416627	-0.381164	0.399654	0.385525	-0.377096	0.406361	0.302598	-0.413817	0.383554	-0.440906	-0.429382	-0.345784	-0.433873	0.376549	-0.42758	0.422699
-0.396523	-0.380838	-0.449139	-0.398777	-0.516917	-0.429082	0.376545	-0.34715	0.419232	0.343425	-0.393238	0.40593	-0.376944	-0.355989	-0.378871	-0.424028	-0.358735	-0.464059	0.369801	0.376399	-0.416102	0.464762	0.357854	-0.383751	0.411853	-0.36083	-0.447673	-0.399399	-0.434557	0.405909	-0.425955	0.437715
-0.417107	-0.391885	-0.351126	-0.389029	-0.610309	-0.468656	0.399746	-0.462481	0.358265	0.407133	-0.376341	0.432622	-0.409939	-0.43814	-0.360167	-0.349974	-0.441149	-0.396194	0.385697	0.418348	-0.424775	0.334621	0.415864	-0.463618	0.399783	-0.454951	-0.396116	-0.45964	-0.464867	0.416139	-0.391255	0.493953
-0.509856	-0.451842	-0.322426	-0.471403	-0.597893	-0.38539	0.446288	-0.357464	0.486028	0.262938	-0.466511	0.444629	-0.470039	-0.415331	-0.455344	-0.462228	-0.391704	-0.454241	0.361832	0.376754	-0.376452	0.54735	0.499972	-0.516191	0.579307	-0.39662	-0.409415	-0.503717	-0.407973	0.479039	-0.566821	0.536794
-0.406777	-0.387665	-0.406955	-0.464274	-0.530264	-0.466628	0.417898	-0.403412	0.345536	0.531427	-0.479394	0.407602	-0.421508	-0.423501	-0.440277	-0.475161	-0.460182	-0.439809	0.350625	0.41747	-0.471283	0.403942	0.475335	-0.416224	0.263172	-0.520113	-0.426172	-0.381287	-0.438594	0.488316	-0.329048	0.332652
-0.36802	-0.47998	-0.38853	-0.339402	-0.0508976	-0.468	0.380313	-0.376563	0.428534	0.42697	-0.404987	0.42812	-0.459001	-0.420954	-0.385186	-0.447414	-0.452707	-0.434128	0.476625	0.348384	-0.450114	0.434146	0.408065	-0.461826	0.386946	-0.375299	-0.449409	-0.484232	-0.392842	0.44194	-0.516025	0.401011
-0.467962	-0.482083	-0.457058	-0.399186	0.0273806	-0.474411	0.401497	-0.438764	0.438345	0.477082	-0.468213	0.46574	-0.376325	-0.456566	-0.400048	-0.388883	-0.433419	-0.479786	0.470492	0.545109	-0.426636	0.520967	0.405159	-0.458631	0.202155	-0.399795	-0.482099	-0.456073	-0.454899	0.500202	-0.511751	0.346607
-0.430056	-0.218543	-0.429736	-0.443632	-0.750364	-0.41323	0.401976	-0.41121	0.383307	0.350807	-0.380953	0.452804	-0.477384	-0.361639	-0.329944	-0.374712	-0.427137	-0.462242	0.322304	0.476454	-0.480076	0.414396	0.500258	-0.376971	0.34979	-0.407678	-0.464472	-0.368673	-0.437361	0.448519	-0.230941	0.282171
-0.36021	0.00939923	-0.44579	-0.461389	-0.847523	-0.298594	0.387173	-0.333141	0.344034	0.416352	-0.43371	0.474356	-0.543721	-0.371153	-0.40214	-0.360516	-0.385767	-0.3782	0.391059	0.422896	-0.454193	0.484024	0.432293	-0.445253	0.272131	-0.403816	-0.475305	-0.394231	-0.466002	0.438913	-0.333354	0.179427
-0.441983	-0.334475	-0.441873	-0.413632	-0.208461	-0.428504	0.448526	-0.444389	0.424384	0.379514	-0.454977	0.425838	-0.326129	-0.451977	-0.369587	-0.434519	-0.468717	-0.378685	0.380962	0.406398	-0.403151	0.417288	0.314844	-0.41227	0.49598	-0.46579	-0.405198	-0.398038	-0.375272	0.444454	-0.473207	0.522821
-0.371081	-0.400373	-0.330945	-0.368128	-0.535504	-0.45299	0.378761	-0.361395	0.316508	0.306882	-0.412669	0.487108	-0.401665	-0.459	-0.412233	-0.401745	-0.360914	-0.431452	0.441518	0.421386	-0.344345	0.330955	0.341359	-0.381647	0.244374	-0.425907	-0.398756	-0.420575	-0.418902	0.382636	-0.169526	0.229903
-0.389623	-0.307214	-0.458458	-0.403387	-0.49556	-0.386417	0.434861	-0.348178	0.382018	0.431006	-0.465582	0.47803	-0.439024	-0.365	-0.394385	-0.370015	-0.390024	-0.376137	0.392297	0.402774	-0.43841	0.399135	0.387773	-0.384384	0.476198	-0.44287	-0.466343	-0.350149	-0.430124	0.438562	-0.334844	0.329849
-0.417968	-0.362628	-0.422867	-0.414686	-0.515647	-0.444195	0.470637	-0.372584	0.415334	0.385471	-0.433031	0.426146	-0.414276	-0.449006	-0.443454	-0.446543	-0.418442	-0.415918	0.353186	0.461452	-0.480208	0.487031	0.437635	-0.431676	0.406833	-0.384423	-0.440742	-0.433319	-0.477725	0.419205	-0.433669	0.303703
-0.464081	-0.3461	-0.415412	-0.400627	-0.407841	-0.365492	0.41062	-0.438756	0.370734	0.332129	-0.380128	0.412491	-0.513845	-0.482407	-0.347238	-0.47892	-0.398487	-0.450007	0.464926	0.424712	-0.385119	0.395908	0.452298	-0.379827	0.398353	-0.343296	-0.407167	-0.459506	-0.404623	0.452698	-0.355341	0.357908
-0.41694	-0.396864	-0.436574	-0.476967	-0.125186	-0.416984	0.455482	-0.456547	0.453622	0.457879	-0.377092	0.407648	-0.433694	-0.400004	-0.422319	-0.432661	-0.406787	-0.369149	0.353035	0.409604	-0.37307	0.246587	0.491831	-0.329378	0.202053	-0.31275	-0.464714	-0.4493	-0.402137	0.406535	-0.356221	0.297262
-0.414478	-0.442366	-0.298172	-0.373518	-0.531364	-0.387514	0.393411	-0.377156	0.394014	0.399652	-0.429046	0.435491	-0.382635	-0.374113	-0.378891	-0.438111	-0.432305	-0.420294	0.384805	0.377445	-0.338255	0.320177	0.397737	-0.430962	0.296945	-0.418295	-0.457311	-0.466829	-0.457714	0.423912	-0.281616	0.419396
-0.418251	0.0333316	-0.479544	-0.464377	-0.854467	-0.222286	0.423594	-0.392836	0.296709	0.409207	-0.425996	0.543799	-0.537544	-0.386591	-0.346121	-0.389806	-0.50137	-0.421739	0.308064	0.468458	-0.383799	0.442142	0.421642	-0.570128	0.232278	-0.491125	-0.417359	-0.269081	-0.414347	0.432808	-0.166907	0.167709
-0.395933	-0.528725	-0.462361	-0.457251	-0.143769	-0.440853	0.463016	-0.444044	0.455429	0.45641	-0.468436	0.461044	-0.2312	-0.473068	-0.443632	-0.47046	-0.456345	-0.479544	0.438788	0.446771	-0.355303	0.360216	0.455511	-0.388324	0.512545	-0.426401	-0.399937	-0.469013	-0.476834	0.385447	-0.386661	0.240303
-0.444033	-0.524185	-0.305255	-0.409171	0.39624	-0.413145	0.482495	-0.398818	0.380307	0.460341	-0.377116	0.424127	-0.388921	-0.407551	-0.321739	-0.473691	-0.43993	-0.527548	0.521066	0.363459	-0.36476	0.47158	0.525346	-0.419455	0.633221	-0.487045	-0.368896	-0.315306	-0.383177	0.345351	-0.445796	0.48719
-0.395054	-0.211256	-0.358817	-0.27199	-0.250132	-0.330793	0.419619	-0.40789	0.342384	0.171259	-0.34826	0.355594	-0.24898	-0.358298	-0.383844	-0.309534	-0.266303	-0.372664	0.305552	0.304354	-0.353478	0.295036	0.309954	-0.35836	0.184954	-0.305628	-0.373004	-0.249917	-0.33571	0.402944	-0.43441	0.447658
-0.374236	-0.536773	-0.322441	-0.446106	-0.158563	-0.402034	0.425368	-0.373399	0.331339	0.36641	-0.396207	0.399362	-0.345929	-0.377312	-0.417084	-0.399173	-0.402728	-0.440103	0.431638	0.431446	-0.399622	0.416643	0.44293	-0.351481	0.373628	-0.433802	-0.444032	-0.470616	-0.458774	0.386112	-0.418049	0.457242
-0.358371	-0.140149	-0.477604	-0.375769	-0.124102	-0.387262	0.397149	-0.416966	0.416096	0.355436	-0.439622	0.460346	-0.371724	-0.393736	-0.463234	-0.384519	-0.40597	-0.385544	0.432769	0.423805	-0.403598	0.286801	0.381948	-0.386881	0.414467	-0.444237	-0.411661	-0.435028	-0.376348	0.373007	-0.470934	0.38218
-0.397541	-0.458925	-0.399111	-0.365062	-0.0237793	-0.425134	0.472185	-0.429597	0.426516	0.428884	-0.430163	0.416488	-0.35499	-0.421196	-0.386941	-0.463472	-0.429108	-0.451585	0.384407	0.396541	-0.416561	0.388302	0.422786	-0.388272	0.253383	-0.437323	-0.401123	-0.447887	-0.460091	0.434023	-0.380379	0.210179
-0.429868	-0.49157	-0.41849	-0.39214	-0.232399	-0.39821	0.439021	-0.470542	0.450911	0.40646	-0.490854	0.413349	-0.297581	-0.454463	-0.360689	-0.458571	-0.472322	-0.416228	0.405472	0.465126	-0.423669	0.34252	0.396577	-0.398036	0.272457	-0.460384	-0.464992	-0.411184	-0.495242	0.461832	-0.386309	0.391403
-0.34852	-0.514913	-0.466819	-0.415521	0.0564887	-0.452422	0.39756	-0.467691	0.443035	0.336579	-0.453216	0.457011	-0.326846	-0.428904	-0.49629	-0.419085	-0.422959	-0.441286	0.498342	0.409438	-0.422637	0.377767	0.341439	-0.389867	0.500023	-0.368935	-0.406943	-0.437347	-0.473579	0.394288	-0.432779	0.301932
-0.429301	-0.524223	-0.396622	-0.416822	0.215023	-0.376563	0.42701	-0.393748	0.382928	0.308686	-0.395321	0.421743	-0.351978	-0.403477	-0.385985	-0.427536	-0.372189	-0.419384	0.42653	0.35043	-0.407501	0.441749	0.412744	-0.361294	0.415259	-0.474694	-0.378447	-0.461777	-0.43449	0.44342	-0.47755	0.384671
-0.423681	-0.435329	-0.461652	-0.440787	-0.338409	-0.39912	0.462785	-0.395018	0.411063	0.433979	-0.386975	0.45992	-0.403128	-0.424929	-0.389234	-0.390021	-0.37387	-0.367006	0.405516	0.444424	-0.43858	0.405278	0.377534	-0.423699	0.431446	-0.382788	-0.373374	-0.433049	-0.467424	0.453534	-0.418446	0.465166
-0.475608	-0.462254	-0.386014	-0.379103	-0.379723	-0.392781	0.447356	-0.463883	0.366653	0.378168	-0.432121	0.461398	-0.318763	-0.372334	-0.374827	-0.429901	-0.407641	-0.386899	0.428487	0.428863	-0.460505	0.468154	0.447677	-0.386694	0.281336	-0.378441	-0.489535	-0.465937	-0.415395	0.321324	-0.47527	0.445874
-0.317971	-0.386116	-0.42213	-0.452657	-0.323812	-0.366778	0.328217	-0.424189	0.407344	0.375678	-0.374644	0.389888	-0.330724	-0.39161	-0.406233	-0.395531	-0.409123	-0.451049	0.389069	0.360054	-0.446976	0.404022	0.392064	-0.397566	0.404822	-0.353894	-0.389296	-0.417344	-0.46352	0.375829	-0.460867	0.389209
-0.466351	-0.208419	-0.421996	-0.385024	-0.182894	-0.506474	0.50979	-0.438226	0.486363	0.490821	-0.421042	0.43244	-0.467792	-0.463272	-0.438309	-0.391693	-0.403509	-0.436055	0.432013	0.484015	-0.468728	0.337833	0.469847	-0.463909	0.36462	-0.432336	-0.471856	-0.465356	-0.482954	0.45365	-0.485488	0.510907
-0.569781	-0.363904	-0.188269	-0.520623	-0.893942	-0.502878	0.273095	-0.259659	0.50675	0.391357	-0.434115	0.289653	-0.451876	-0.45497	-0.413165	-0.268763	-0.354153	-0.513864	0.457692	0.43954	-0.358493	0.483429	0.169674	-0.555484	0.59772	-0.371393	-0.264343	-0.508554	-0.345187	0.573503	-0.446768	0.433065
-0.46321	-0.368849	-0.489529	-0.460119	-0.0782005	-0.442944	0.39658	-0.49382	0.364152	0.470443	-0.433835	0.471016	-0.36521	-0.428584	-0.468979	-0.380847	-0.474371	-0.356183	0.363224	0.375114	-0.398762	0.415068	0.408214	-0.414689	0.240683	-0.352289	-0.403951	-0.445178	-0.46523	0.41898	-0.494094	0.378218
-0.337007	-0.196719	-0.554951	-0.462896	0.0893307	-0.404461	0.460285	-0.480949	0.508492	0.316808	-0.354723	0.445659	-0.371731	-0.511211	-0.36225	-0.306768	-0.496701	-0.417077	0.304971	0.33281	-0.542524	0.19748	0.392747	-0.381807	0.534791	-0.425226	-0.447597	-0.510658	-0.406175	0.471682	-0.557069	0.602199
-0.423325	-0.437821	-0.33924	-0.386544	-0.644864	-0.366701	0.430067	-0.337935	0.381829	0.338742	-0.393201	0.476142	-0.370201	-0.348453	-0.392956	-0.472826	-0.416476	-0.424489	0.369002	0.349919	-0.426591	0.390126	0.407715	-0.417076	0.362651	-0.434382	-0.400959	-0.446711	-0.361115	0.36334	-0.407101	0.402454
-0.397997	-0.504451	-0.497719	-0.452561	-0.00368061	-0.438813	0.403084	-0.509357	0.495213	0.419446	-0.386468	0.421227	-0.441156	-0.426234	-0.392748	-0.494707	-0.420774	-0.442268	0.505397	0.345999	-0.493063	0.488986	0.403416	-0.399558	0.39842	-0.451664	-0.42028	-0.365941	-0.368841	0.388841	-0.500769	0.320573
-0.415553	-0.36083	-0.342636	-0.428037	-0.487965	-0.322166	0.367495	-0.470022	0.371122	0.46096	-0.398944	0.390125	-0.391196	-0.42642	-0.422274	-0.390333	-0.457439	-0.446514	0.439372	0.438509	-0.349455	0.255536	0.482795	-0.437153	0.323418	-0.304915	-0.39326	-0.30283	-0.350403	0.44572	-0.525703	0.44625
-0.437055	-0.445332	-0.455748	-0.407811	-0.534674	-0.456176	0.473913	-0.428428	0.383532	0.352879	-0.394165	0.471377	-0.328016	-0.460573	-0.407813	-0.494027	-0.427874	-0.468662	0.456237	0.463274	-0.459116	0.400941	0.40262	-0.362139	0.353073	-0.364263	-0.449107	-0.359244	-0.450464	0.415738	-0.34415	0.392398
-0.325977	-0.474103	-0.368492	-0.369581	-0.573037	-0.430267	0.464215	-0.414482	0.347165	0.287812	-0.4395	0.42446	-0.302196	-0.405643	-0.357829	-0.38912	-0.470984	-0.346462	0.372924	0.424383	-0.412466	0.427612	0.390554	-0.49919	0.469782	-0.451828	-0.386299	-0.340632	-0.475348	0.437217	-0.487078	0.446102
-0.285616	-0.0646148	-0.331035	-0.481892	-0.782817	-0.429868	0.485482	-0.416577	0.292024	0.453424	-0.314843	0.367469	-0.508512	-0.375798	-0.392203	-0.420478	-0.314195	-0.475242	0.252423	0.569669	-0.376481	0.470604	0.42554	-0.295489	0.120166	-0.351909	-0.3656	-0.316009	-0.461852	0.411784	-0.277415	0.122434
-0.507023	-0.548176	-0.466291	-0.404088	-0.257844	-0.527859	0.478758	-0.448593	0.517161	0.472401	-0.420657	0.53652	-0.395727	-0.467392	-0.430724	-0.501922	-0.453411	-0.512734	0.492796	0.385577	-0.464281	0.388214	0.424177	-0.461323	0.477254	-0.45715	-0.452949	-0.43357	-0.454582	0.507476	-0.508998	0.451885
-0.502184	-0.361082	-0.447746	-0.452939	-0.460455	-0.358292	0.417048	-0.48213	0.400007	0.464322	-0.507037	0.445848	-0.501652	-0.428231	-0.404169	-0.460996	-0.424653	-0.402563	0.349521	0.462037	-0.423916	0.515848	0.348083	-0.471856	0.354442	-0.395716	-0.485316	-0.396368	-0.423564	0.497267	-0.396844	0.323558
-0.446727	-0.543562	-0.430538	-0.462213	0.259407	-0.381428	0.442268	-0.468313	0.44053	0.459749	-0.396238	0.441217	-0.330333	-0.466572	-0.362778	-0.463722	-0.473342	-0.388102	0.379495	0.312943	-0.423201	0.372801	0.415904	-0.413533	0.357908	-0.345661	-0.460165	-0.397614	-0.461432	0.437955	-0.481185	0.35182
-0.442316	-0.419952	-0.44066	-0.403868	-0.492074	-0.353003	0.430066	-0.397011	0.286935	0.311479	-0.390213	0.40265	-0.358901	-0.413598	-0.382285	-0.341945	-0.369805	-0.406198	0.376136	0.425917	-0.390568	0.401734	0.350178	-0.386437	0.322415	-0.330036	-0.45242	-0.380216	-0.457354	0.384547	-0.140294	0.454524
-0.43494	-0.540608	-0.444702	-0.455289	-0.539534	-0.406932	0.387803	-0.376659	0.396586	0.501599	-0.434316	0.378805	-0.221673	-0.491886	-0.39765	-0.455864	-0.375294	-0.385097	0.491383	0.404861	-0.445073	0.375051	0.356084	-0.42218	0.456141	-0.405416	-0.473894	-0.366499	-0.485696	0.442275	-0.447322	0.451419
-0.431197	-0.206517	-0.46788	-0.423097	-0.63671	-0.345558	0.357711	-0.372991	0.306076	0.392232	-0.382101	0.380394	-0.498464	-0.365655	-0.373519	-0.378775	-0.411993	-0.35279	0.379875	0.454216	-0.362217	0.302067	0.470616	-0.355499	0.16484	-0.311587	-0.361571	-0.438219	-0.416113	0.378792	-0.254837	0.385486
-0.415113	-0.452594	-0.395483	-0.40054	-0.291128	-0.45339	0.459677	-0.376385	0.439229	0.383923	-0.375028	0.370444	-0.445097	-0.380412	-0.438938	-0.429631	-0.43075	-0.416924	0.428475	0.406975	-0.360072	0.429505	0.381594	-0.401893	0.367649	-0.364565	-0.462083	-0.387821	-0.359315	0.387988	-0.479282	0.451861
-0.439998	-0.263221	-0.492302	-0.317263	-0.804964	-0.412004	0.424242	-0.348759	0.465177	0.476154	-0.403445	0.476746	-0.517323	-0.442827	-0.360625	-0.379046	-0.480009	-0.472014	0.400033	0.47594	-0.43691	0.493338	0.487402	-0.460381	0.293438	-0.331326	-0.515028	-0.299884	-0.419442	0.44983	-0.240978	0.262354
-0.446241	-0.407727	-0.408396	-0.458007	-0.22211	-0.420302	0.408152	-0.410368	0.408268	0.40088	-0.460932	0.450421	-0.424767	-0.433969	-0.451002	-0.481596	-0.413502	-0.451458	0.48168	0.421811	-0.50622	0.469488	0.475141	-0.445655	0.470788	-0.45088	-0.38884	-0.513862	-0.450209	0.385734	-0.505382	0.33571
-0.394844	-0.25323	-0.473092	-0.378673	-0.670662	-0.380854	0.367455	-0.4318	0.387626	0.372825	-0.404557	0.371539	-0.413412	-0.447928	-0.403896	-0.415677	-0.373974	-0.453393	0.389393	0.412837	-0.452582	0.44737	0.396492	-0.409008	0.402733	-0.417672	-0.421317	-0.445399	-0.388378	0.391022	-0.400505	0.391706
-0.399246	-0.456888	-0.378009	-0.485214	-0.335153	-0.398909	0.422048	-0.448165	0.437694	0.316831	-0.343096	0.480531	-0.220408	-0.500748	-0.392445	-0.475459	-0.382634	-0.442075	0.458944	0.481769	-0.463439	0.327665	0.511634	-0.518474	0.431371	-0.332047	-0.519393	-0.477572	-0.385472	0.363557	-0.412008	0.469394
-0.404889	-0.375821	-0.400951	-0.345135	-0.153438	-0.398937	0.372093	-0.392159	0.362137	0.32123	-0.358222	0.348788	-0.353117	-0.345305	-0.445609	-0.350314	-0.365553	-0.462484	0.355892	0.389228	-0.391334	0.466762	0.428878	-0.381889	0.462696	-0.345672	-0.407703	-0.427516	-0.382504	0.418559	-0.417597	0.431495
-0.404715	-0.450402	-0.46142	-0.475001	-0.527427	-0.48447	0.405426	-0.456549	0.44017	0.334973	-0.455793	0.479875	-0.459644	-0.378078	-0.475873	-0.424056	-0.421894	-0.435122	0.496394	0.379735	-0.478963	0.438618	0.45575	-0.432126	0.44667	-0.382756	-0.465864	-0.392529	-0.498483	0.448814	-0.389457	0.470809
-0.401121	-0.42759	-0.369701	-0.397122	-0.00102553	-0.385147	0.372286	-0.422571	0.448564	0.367226	-0.400345	0.379953	-0.314343	-0.40885	-0.344765	-0.364055	-0.347087	-0.423348	0.381554	0.323223	-0.348645	0.39467	0.3812	-0.442407	0.383856	-0.429548	-0.445131	-0.419874	-0.379676	0.345622	-0.395667	0.358066
-0.484171	-0.426414	-0.465281	-0.431862	-0.375494	-0.44875	0.364293	-0.333417	0.427084	0.343842	-0.408053	0.348585	-0.39597	-0.378876	-0.386909	-0.433384	-0.443157	-0.345071	0.354374	0.390388	-0.421856	0.405467	0.374919	-0.351082	0.485016	-0.355135	-0.424133	-0.343552	-0.385746	0.344241	-0.375191	0.48727
-0.307026	-0.242494	-0.48893	-0.440513	-0.373887	-0.460691	0.381052	-0.348355	0.406701	0.486009	-0.308788	0.427616	-0.235469	-0.404935	-0.326296	-0.418844	-0.39685	-0.356392	0.324032	0.471655	-0.300625	0.46443	0.399778	-0.361435	0.352875	-0.304886	-0.489808	-0.435875	-0.357167	0.356708	-0.211745	0.328086
-0.477995	-0.44511	-0.430387	-0.451229	-0.512693	-0.417293	0.506724	-0.355877	0.471126	0.399356	-0.450452	0.398388	-0.415098	-0.419442	-0.402842	-0.404435	-0.424952	-0.405574	0.460005	0.482176	-0.426652	0.568056	0.381529	-0.3916	0.412204	-0.408533	-0.421649	-0.435572	-0.478134	0.419341	-0.37582	0.333106
-0.443367	-0.385795	-0.312551	-0.42156	-0.441145	-0.475762	0.37428	-0.427962	0.393165	0.471841	-0.38604	0.430982	-0.37787	-0.427396	-0.424685	-0.405754	-0.449272	-0.390576	0.349922	0.376054	-0.389473	0.413629	0.416596	-0.356305	0.390656	-0.375244	-0.454343	-0.396472	-0.466449	0.470996	-0.334228	0.439757
-0.430997	-0.416622	-0.464184	-0.467658	-0.418207	-0.450088	0.382795	-0.371542	0.436442	0.445257	-0.481684	0.401068	-0.440928	-0.472381	-0.443625	-0.406487	-0.435011	-0.420533	0.369664	0.425717	-0.475281	0.372118	0.41505	-0.410349	0.324235	-0.41538	-0.468702	-0.370844	-0.441842	0.447556	-0.414094	0.276209
-0.398352	-0.452753	-0.38608	-0.332768	-0.0687505	-0.461891	0.330555	-0.271921	0.372879	0.44914	-0.324902	0.415341	-0.442496	-0.433814	-0.41571	-0.407491	-0.359186	-0.413585	0.339402	0.320168	-0.306495	0.466211	0.385125	-0.450535	0.332985	-0.31102	-0.329761	-0.430049	-0.411839	0.410867	-0.488153	0.333326
-0.465098	-0.471646	-0.448666	-0.422403	-0.248685	-0.488345	0.391039	-0.483726	0.375384	0.393119	-0.415385	0.40373	-0.312194	-0.380379	-0.468244	-0.377913	-0.410578	-0.401205	0.491215	0.469287	-0.487054	0.449652	0.373974	-0.468521	0.367363	-0.423895	-0.384611	-0.497808	-0.419963	0.472942	-0.403659	0.40537
-0.342945	-0.324896	-0.341984	-0.408958	-0.443426	-0.408004	0.419248	-0.286329	0.247597	0.334104	-0.360939	0.338941	-0.202538	-0.283463	-0.353613	-0.300133	-0.413828	-0.372964	0.320579	0.402169	-0.354163	0.380544	0.355697	-0.419198	0.240821	-0.343346	-0.357846	-0.305465	-0.410656	0.421072	-0.251807	0.503812
-0.499647	-0.439006	-0.483444	-0.441978	-0.0875896	-0.42956	0.39264	-0.440421	0.414017	0.410181	-0.364174	0.46888	-0.388506	-0.440799	-0.445482	-0.46813	-0.454408	-0.449168	0.488634	0.449545	-0.420609	0.49712	0.356013	-0.41644	0.50634	-0.378944	-0.446137	-0.50363	-0.461467	0.452791	-0.444264	0.344953
-0.457892	-0.479096	-0.471617	-0.404552	-0.091391	-0.381888	0.497116	-0.43525	0.425456	0.444018	-0.436297	0.370584	-0.326521	-0.422323	-0.391703	-0.466392	-0.451289	-0.378466	0.499713	0.482031	-0.478315	0.322402	0.381416	-0.348241	0.501513	-0.409539	-0.401544	-0.463427	-0.485178	0.399784	-0.427662	0.313891
-0.283169	-0.498163	-0.297538	-0.388344	-0.503135	-0.367631	0.368872	-0.317893	0.376455	0.340575	-0.337253	0.38801	-0.199522	-0.311634	-0.354017	-0.333594	-0.343914	-0.396751	0.354068	0.399607	-0.354974	0.275985	0.339081	-0.365736	0.365755	-0.348894	-0.327805	-0.289482	-0.38293	0.273461	-0.240529	0.388438
-0.396537	-0.295956	-0.325952	-0.34083	-0.347708	-0.378073	0.31311	-0.266872	0.353206	0.36457	-0.306945	0.355972	-0.408171	-0.339294	-0.357773	-0.320517	-0.345788	-0.37469	0.400525	0.310844	-0.400112	0.368854	0.346806	-0.381482	0.182579	-0.369554	-0.356318	-0.368074	-0.416641	0.2936	-0.305079	0.337497
-0.410919	-0.465043	-0.392262	-0.402071	0.0197561	-0.455636	0.410223	-0.381057	0.480491	0.419671	-0.469492	0.425939	-0.399249	-0.436356	-0.484647	-0.468829	-0.403563	-0.494839	0.402082	0.462473	-0.481604	0.488493	0.440685	-0.470385	0.29459	-0.390634	-0.508174	-0.430667	-0.395231	0.475457	-0.455524	0.36942
-0.380941	-0.35212	-0.438321	-0.384291	-0.383418	-0.39117	0.39637	-0.379099	0.4623	0.390601	-0.462107	0.404075	-0.404168	-0.432284	-0.347504	-0.433426	-0.358134	-0.384318	0.392914	0.380343	-0.454222	0.485466	0.409302	-0.484486	0.442882	-0.357686	-0.41333	-0.430282	-0.376329	0.431731	-0.33197	0.549406
-0.281985	-0.0544476	-0.333672	-0.281174	-0.629802	-0.190024	0.32757	-0.10999	0.265581	0.0293798	-0.277309	0.344104	-0.327052	-0.324349	-0.294907	-0.173709	-0.355199	-0.261132	0.346958	0.251937	-0.351937	0.290653	0.322133	-0.266209	0.315798	-0.35575	-0.314055	-0.237005	-0.330437	0.265922	-0.383387	0.0846031
-0.353227	-0.45396	-0.402567	-0.429943	0.211805	-0.331801	0.336468	-0.402176	0.326112	0.381614	-0.405764	0.479737	-0.307187	-0.388838	-0.345009	-0.326092	-0.39526	-0.330591	0.327459	0.346692	-0.457152	0.319975	0.290009	-0.387022	0.494406	-0.445421	-0.374707	-0.454924	-0.372477	0.361163	-0.388664	0.44461
-0.408447	-0.422886	-0.430081	-0.40324	-0.300362	-0.502844	0.367815	-0.414369	0.294039	0.253344	-0.450386	0.458601	-0.500441	-0.43618	-0.42627	-0.471406	-0.405893	-0.471494	0.490063	0.486315	-0.52317	0.511923	0.453754	-0.445027	0.583428	-0.456011	-0.458365	-0.44996	-0.452475	0.433326	-0.315679	0.508384
-0.206527	-0.218676	-0.292486	-0.246734	-0.731782	-0.204223	0.281026	-0.336453	0.145669	0.115482	-0.37024	0.26355	-0.327853	-0.272773	-0.327134	-0.21517	-0.287053	-0.281363	0.233238	0.343728	-0.278158	0.156362	0.328737	-0.318104	0.222047	-0.276433	-0.281574	-0.238658	-0.339843	0.256255	-0.210996	0.040758
-0.403074	-0.189013	-0.472504	-0.468015	0.153942	-0.388969	0.467137	-0.245074	0.250306	0.426862	-0.377371	0.390828	-0.372814	-0.404096	-0.365509	-0.458635	-0.418025	-0.332653	0.419053	0.373649	-0.344059	0.533944	0.448195	-0.382319	0.652052	-0.244345	-0.354548	-0.41789	-0.339756	0.455744	-0.449948	0.152648
-0.378896	-0.412764	-0.391753	-0.417062	-0.0138586	-0.391674	0.451788	-0.424373	0.451979	0.447007	-0.43645	0.385066	-0.381409	-0.416254	-0.368435	-0.489156	-0.415859	-0.397927	0.419947	0.320656	-0.398036	0.197009	0.480251	-0.432161	0.403507	-0.453696	-0.482063	-0.420861	-0.38247	0.327408	-0.379083	0.473272
-0.428896	-0.504034	-0.508657	-0.462517	-0.290422	-0.422763	0.476507	-0.472092	0.410355	0.404242	-0.399834	0.40289	-0.434726	-0.434198	-0.459665	-0.48324	-0.446287	-0.482512	0.451565	0.386782	-0.414585	0.478218	0.455698	-0.386788	0.360301	-0.449879	-0.429465	-0.474776	-0.399512	0.446525	-0.387249	0.416339
-0.430288	-0.486543	-0.431725	-0.408224	-0.448377	-0.346069	0.348931	-0.486326	0.379282	0.466576	-0.311473	0.42215	-0.248428	-0.445635	-0.450498	-0.344844	-0.335673	-0.396534	0.331301	0.353405	-0.395591	0.292985	0.400121	-0.414632	0.428749	-0.363437	-0.429002	-0.41109	-0.322344	0.39454	-0.437243	0.395963
-0.389163	-0.522683	-0.419013	-0.454104	0.0120072	-0.514683	0.464384	-0.457502	0.408579	0.340127	-0.397237	0.395525	-0.439557	-0.436753	-0.44404	-0.421722	-0.398928	-0.422695	0.443313	0.436707	-0.387518	0.439585	0.364731	-0.493045	0.487827	-0.446254	-0.382328	-0.388117	-0.438143	0.454432	-0.515272	0.358768
-0.326581	-0.283356	-0.369639	-0.422855	-0.350247	-0.33722	0.426335	-0.40674	0.287468	0.412641	-0.3729	0.405232	-0.560476	-0.380012	-0.435755	-0.368612	-0.322794	-0.39068	0.310418	0.384542	-0.293319	0.414192	0.360014	-0.370375	0.370673	-0.340367	-0.297295	-0.345124	-0.377964	0.367551	-0.442448	0.40546
-0.459966	-0.0966318	-0.434482	-0.417366	-0.832666	-0.314174	0.48895	-0.447757	0.327628	0.431392	-0.373655	0.404432	-0.453493	-0.422825	-0.371645	-0.432399	-0.450652	-0.437719	0.385298	0.520096	-0.431294	0.461747	0.502731	-0.388132	0.23453	-0.477328	-0.477137	-0.446491	-0.431462	0.438423	-0.285734	0.328279
-0.304799	-0.332959	-0.319253	-0.398582	-0.424604	-0.4071	0.343285	-0.297814	0.324895	0.373244	-0.371211	0.381262	-0.340773	-0.294235	-0.388288	-0.402909	-0.301358	-0.419234	0.240565	0.39998	-0.283769	0.36266	0.410526	-0.291264	0.219688	-0.370499	-0.323766	-0.344198	-0.34978	0.341153	-0.216148	0.359347
-0.442509	-0.525738	-0.436841	-0.464496	0.135231	-0.442891	0.388449	-0.358942	0.55107	0.423155	-0.391585	0.384652	-0.456085	-0.476648	-0.464166	-0.415601	-0.472998	-0.465691	0.489525	0.401357	-0.464585	0.351701	0.41573	-0.420454	0.332197	-0.463138	-0.475719	-0.419814	-0.371911	0.434551	-0.5767	0.251477
-0.41494	-0.556987	-0.355994	-0.421419	-0.0386622	-0.473897	0.453166	-0.443408	0.448907	0.47424	-0.453455	0.450306	-0.369138	-0.478402	-0.436599	-0.473819	-0.467383	-0.402368	0.419128	0.348094	-0.424809	0.502841	0.392243	-0.472353	0.428653	-0.399752	-0.405028	-0.515111	-0.451081	0.387683	-0.518086	0.279031
-0.481218	-0.471915	-0.426092	-0.448686	-0.577823	-0.442585	0.496202	-0.487015	0.385457	0.376723	-0.407587	0.465082	-0.336534	-0.404332	-0.366577	-0.500185	-0.44493	-0.421493	0.377536	0.442206	-0.472043	0.491012	0.484237	-0.449144	0.40537	-0.422979	-0.465839	-0.438116	-0.408987	0.375282	-0.42859	0.487851
-0.503009	-0.361984	-0.43575	-0.416712	-0.425833	-0.454189	0.418986	-0.467101	0.408183	0.473399	-0.530745	0.476271	-0.383195	-0.483654	-0.444354	-0.470894	-0.472438	-0.392132	0.43093	0.496275	-0.386627	0.432165	0.355338	-0.480307	0.453871	-0.471287	-0.420458	-0.476384	-0.471688	0.477513	-0.492656	0.485308
-0.46884	-0.263458	-0.330993	-0.453674	-0.467991	-0.47438	0.513247	-0.362983	0.460531	0.495446	-0.39479	0.492709	-0.383232	-0.490715	-0.442406	-0.444446	-0.493901	-0.48077	0.471259	0.472498	-0.464864	0.425505	0.412523	-0.428712	0.479416	-0.465704	-0.417071	-0.404566	-0.439028	0.491361	-0.402295	0.353343
-0.509918	-0.509865	-0.412938	-0.485068	-0.316503	-0.415624	0.359511	-0.412843	0.478187	0.446374	-0.482882	0.511598	-0.337826	-0.410344	-0.382074	-0.487949	-0.464074	-0.489984	0.483756	0.485793	-0.529772	0.471976	0.422712	-0.482862	0.531181	-0.442017	-0.424415	-0.492813	-0.416788	0.486297	-0.343762	0.468105
-0.400944	-0.0565795	-0.333797	-0.395148	-0.767757	-0.417677	0.39899	-0.324058	0.273525	0.307993	-0.38173	0.412299	-0.54007	-0.295596	-0.355563	-0.456816	-0.415275	-0.400539	0.343455	0.497723	-0.374657	0.383128	0.432784	-0.43173	0.103185	-0.426911	-0.406263	-0.329651	-0.38524	0.502349	-0.411597	0.0571498
-0.381341	-0.521891	-0.355995	-0.460093	0.227318	-0.38124	0.427257	-0.381258	0.467375	0.323435	-0.388997	0.414692	-0.362067	-0.401862	-0.409883	-0.450001	-0.401867	-0.466775	0.441592	0.466283	-0.360084	0.341444	0.459079	-0.36337	0.328753	-0.451272	-0.382267	-0.388746	-0.403473	0.402583	-0.420524	0.212811
-0.374262	-0.167707	-0.277218	-0.362362	-0.523999	-0.333829	0.251777	-0.407576	0.295364	0.287704	-0.27413	0.360181	-0.507365	-0.43673	-0.282887	-0.248086	-0.343929	-0.280709	0.322378	0.217123	-0.374918	0.309168	0.449603	-0.35189	0.416213	-0.376209	-0.447926	-0.277829	-0.378213	0.306484	-0.273214	0.256623
-0.386991	-0.456513	-0.359856	-0.389157	-0.360817	-0.419956	0.359634	-0.28012	0.353206	0.400378	-0.301155	0.401202	-0.366044	-0.30171	-0.34742	-0.262233	-0.399114	-0.368954	0.337248	0.399758	-0.350402	0.328288	0.391135	-0.317883	0.378977	-0.4256	-0.392575	-0.293043	-0.358803	0.409145	-0.221788	0.444104
-0.52344	-0.607479	-0.495212	-0.422978	-0.622009	-0.398909	0.305142	-0.300369	0.466115	0.346664	-0.336679	0.441928	-0.311786	-0.408456	-0.359558	-0.323871	-0.471261	-0.383266	0.559256	0.426713	-0.489097	0.475057	0.404901	-0.361776	0.545488	-0.326291	-0.399685	-0.446928	-0.482724	0.406092	-0.225453	0.572323
-0.35022	-0.343591	-0.405207	-0.470917	-0.234449	-0.395648	0.367312	-0.413449	0.395173	0.462668	-0.442715	0.369907	-0.458275	-0.436646	-0.430786	-0.404052	-0.419635	-0.38359	0.416502	0.454367	-0.406654	0.324181	0.356757	-0.360145	0.441988	-0.390349	-0.449154	-0.426955	-0.384132	0.441349	-0.43143	0.437301
-0.419966	-0.466975	-0.411879	-0.373069	0.0720791	-0.381302	0.364116	-0.36804	0.385004	0.406058	-0.421082	0.409431	-0.341108	-0.35072	-0.305009	-0.419762	-0.365952	-0.312081	0.36526	0.355033	-0.400333	0.412851	0.352339	-0.339899	0.355474	-0.321613	-0.363186	-0.408712	-0.344595	0.37296	-0.402305	0.305509
-0.433106	-0.418787	-0.327946	-0.435173	-0.403212	-0.351018	0.369122	-0.350278	0.393459	0.354721	-0.40088	0.430641	-0.441084	-0.407322	-0.378316	-0.438383	-0.39472	-0.360417	0.439111	0.424154	-0.42112	0.391345	0.363764	-0.381427	0.409739	-0.425025	-0.355651	-0.362563	-0.455476	0.399248	-0.351561	0.43199
-0.362012	-0.392544	-0.417495	-0.463635	-0.0454322	-0.416308	0.406584	-0.382651	0.336307	0.506141	-0.394892	0.443023	-0.471815	-0.402594	-0.403381	-0.375172	-0.430137	-0.420505	0.365515	0.41404	-0.410024	0.426043	0.376533	-0.388222	0.416762	-0.396945	-0.447873	-0.430412	-0.452252	0.4431	-0.419519	0.426221
-0.40715	-0.36783	-0.376296	-0.449366	-0.247712	-0.417207	0.471179	-0.370645	0.417831	0.371022	-0.440508	0.458985	-0.298892	-0.430063	-0.418092	-0.400973	-0.429689	-0.460176	0.301481	0.400486	-0.463576	0.328311	0.450698	-0.377291	0.206542	-0.375138	-0.467287	-0.473163	-0.442729	0.460546	-0.457526	0.339485
-0.412093	-0.419016	-0.379645	-0.465547	-0.432249	-0.425966	0.454607	-0.452711	0.343217	0.429012	-0.351603	0.420298	-0.366259	-0.377094	-0.45786	-0.360696	-0.378851	-0.46828	0.436015	0.353725	-0.435699	0.439119	0.372114	-0.439943	0.427724	-0.390549	-0.362801	-0.319863	-0.426459	0.356079	-0.299634	0.422823
-0.468233	-0.532979	-0.50141	-0.416144	-0.248575	-0.414472	0.444701	-0.367137	0.420243	0.343935	-0.428628	0.396735	-0.496898	-0.444732	-0.421393	-0.422706	-0.460278	-0.499757	0.451705	0.421575	-0.482383	0.499638	0.363209	-0.527498	0.403099	-0.531312	-0.385551	-0.433212	-0.385108	0.376002	-0.477985	0.544251
-0.444877	-0.262075	-0.355099	-0.397461	-0.531455	-0.423076	0.396225	-0.450856	0.397815	0.365229	-0.42184	0.430603	-0.405525	-0.359684	-0.396418	-0.374414	-0.419006	-0.396988	0.420229	0.460792	-0.453709	0.34825	0.394864	-0.430724	0.308422	-0.42745	-0.442055	-0.401791	-0.361817	0.429627	-0.265438	0.45971
-0.445517	-0.256673	-0.365397	-0.353371	-0.131098	-0.371363	0.450375	-0.459201	0.393907	0.39031	-0.428724	0.419214	-0.402959	-0.429426	-0.435789	-0.410609	-0.439279	-0.413801	0.366726	0.353649	-0.402113	0.383727	0.43064	-0.365616	0.37343	-0.372413	-0.444454	-0.343283	-0.358727	0.392755	-0.356147	0.40847
-0.366201	-0.438546	-0.340893	-0.42093	0.0622701	-0.397548	0.406169	-0.381495	0.406029	0.445773	-0.330174	0.361535	-0.296235	-0.444221	-0.433044	-0.454513	-0.37247	-0.430319	0.336951	0.315049	-0.446643	0.369533	0.454426	-0.418977	0.310553	-0.415941	-0.379568	-0.362161	-0.346835	0.381009	-0.466159	0.334618
-0.443369	-0.405784	-0.47572	-0.443526	-0.336238	-0.421299	0.457082	-0.410845	0.382412	0.423516	-0.475947	0.456175	-0.398738	-0.454821	-0.411411	-0.457992	-0.385493	-0.465042	0.477139	0.48415	-0.468623	0.379809	0.414881	-0.470593	0.208999	-0.469772	-0.459375	-0.414243	-0.394511	0.415179	-0.356968	0.342852
-0.434438	-0.43093	-0.396003	-0.384746	0.0752396	-0.351323	0.427718	-0.363221	0.364467	0.448363	-0.463944	0.466222	-0.30365	-0.386631	-0.477067	-0.481512	-0.49067	-0.344886	0.292578	0.423531	-0.46647	0.277175	0.368836	-0.447946	0.222796	-0.329065	-0.412132	-0.457709	-0.447139	0.452072	-0.435402	0.51175
-0.406112	-0.386599	-0.410734	-0.329931	-0.14304	-0.368945	0.466585	-0.420904	0.532532	0.477687	-0.400527	0.397422	-0.324398	-0.486493	-0.39817	-0.398427	-0.439527	-0.411714	0.469156	0.416511	-0.402622	0.479971	0.470683	-0.407374	0.286447	-0.487448	-0.40053	-0.487215	-0.435923	0.322989	-0.453404	0.413542
-0.322402	-0.520533	-0.359748	-0.428188	-0.47077	-0.469385	0.47627	-0.47561	0.410719	0.572373	-0.309052	0.436876	-0.23871	-0.475144	-0.385869	-0.385174	-0.330773	-0.375974	0.36398	0.377935	-0.344956	0.497268	0.34027	-0.405089	0.291361	-0.410162	-0.454264	-0.383981	-0.465236	0.420674	-0.407786	0.626603
-0.483151	-0.243903	-0.270268	-0.341902	-0.75455	-0.451682	0.390382	-0.471538	0.159691	0.506012	-0.310178	0.342742	-0.573751	-0.530691	-0.302693	-0.433851	-0.426499	-0.398865	0.219218	0.518567	-0.439936	0.498426	0.462324	-0.533134	0.4596	-0.235858	-0.41974	-0.194052	-0.344952	0.505599	-0.287261	0.266109
-0.417378	-0.421359	-0.324966	-0.321908	-0.567475	-0.428354	0.337214	-0.432789	0.38864	0.350589	-0.386142	0.411508	-0.363788	-0.380319	-0.335536	-0.42541	-0.446503	-0.370818	0.422223	0.345334	-0.348523	0.458157	0.438102	-0.466946	0.393783	-0.300817	-0.419315	-0.374249	-0.395589	0.324451	-0.473128	0.467547
-0.462983	-0.483308	-0.46195	-0.511354	-0.248239	-0.445462	0.481185	-0.468886	0.423017	0.344575	-0.4949	0.472001	-0.467067	-0.422986	-0.498828	-0.478963	-0.449792	-0.464136	0.45345	0.45009	-0.484317	0.39255	0.480827	-0.427943	0.376638	-0.461898	-0.5043	-0.4826	-0.459727	0.393943	-0.408667	0.496059
-0.480822	-0.562015	-0.462289	-0.447294	-0.189855	-0.442137	0.42027	-0.390124	0.500697	0.356711	-0.411908	0.438257	-0.458559	-0.419569	-0.474809	-0.406501	-0.411646	-0.471375	0.494016	0.359552	-0.375096	0.446806	0.417002	-0.492654	0.391828	-0.382598	-0.482834	-0.419583	-0.390584	0.400543	-0.452466	0.415928
-0.213112	-0.274524	-0.160504	-0.328083	-0.557343	-0.334724	0.351412	-0.239091	0.285198	0.20008	-0.291334	0.322598	-0.374108	-0.347908	-0.374601	-0.338258	-0.355417	-0.378324	0.367746	0.251578	-0.304245	0.332178	0.304131	-0.288475	0.178906	-0.400295	-0.236367	-0.301434	-0.3606	0.254113	-0.204109	0.3251
-0.359406	-0.374783	-0.429332	-0.386987	-0.382937	-0.401307	0.440543	-0.410704	0.402767	0.430799	-0.403897	0.411878	-0.413028	-0.441365	-0.397263	-0.466016	-0.354491	-0.375891	0.423891	0.395928	-0.438018	0.391645	0.374405	-0.462708	0.40852	-0.453398	-0.45137	-0.415256	-0.410856	0.458607	-0.431598	0.374743
-0.447245	-0.435816	-0.411411	-0.491335	-0.123026	-0.438581	0.459238	-0.498506	0.429162	0.469006	-0.415397	0.402577	-0.37303	-0.430275	-0.472439	-0.473876	-0.455629	-0.428024	0.450035	0.488796	-0.415233	0.444994	0.489759	-0.416278	0.403835	-0.42275	-0.487033	-0.489607	-0.42946	0.376643	-0.408837	0.497697
-0.429517	-0.47987	-0.335122	-0.386742	0.417134	-0.349753	0.419142	-0.476781	0.392928	0.402016	-0.395865	0.341098	-0.23323	-0.376994	-0.356782	-0.406722	-0.423691	-0.414675	0.446592	0.31778	-0.417616	0.411883	0.383931	-0.355759	0.42467	-0.476671	-0.433195	-0.436408	-0.417081	0.333881	-0.393928	0.304987
-0.240603	-0.106134	-0.383922	-0.404212	-0.81977	-0.435127	0.414021	-0.33377	0.162241	0.310291	-0.353114	0.355365	-0.562501	-0.292214	-0.441005	-0.443849	-0.363419	-0.408405	0.376311	0.488738	-0.336185	0.373298	0.397512	-0.367156	0.239374	-0.338843	-0.444266	-0.35375	-0.397865	0.420316	-0.323383	0.240852
-0.445848	-0.418954	-0.455237	-0.471896	-0.352188	-0.508076	0.484449	-0.42309	0.474275	0.396637	-0.398767	0.461672	-0.428413	-0.384537	-0.4044	-0.48667	-0.424411	-0.440353	0.392567	0.460099	-0.480138	0.356099	0.409844	-0.413669	0.428266	-0.403231	-0.483278	-0.450219	-0.397255	0.45849	-0.451245	0.407252
-0.467228	-0.388712	-0.418403	-0.467591	-0.344658	-0.441416	0.410807	-0.502509	0.449654	0.419636	-0.424025	0.465543	-0.382718	-0.473647	-0.465856	-0.450469	-0.48525	-0.385071	0.385408	0.4555	-0.456363	0.406252	0.468707	-0.385269	0.329354	-0.492233	-0.490557	-0.444808	-0.401781	0.428398	-0.476212	0.428174
-0.456056	-0.542697	-0.474307	-0.385396	0.0977813	-0.41676	0.490812	-0.372054	0.458936	0.438062	-0.474465	0.447436	-0.452735	-0.446253	-0.48288	-0.406339	-0.441079	-0.43666	0.50226	0.436096	-0.468638	0.500416	0.421891	-0.480602	0.386887	-0.402328	-0.462006	-0.459904	-0.391597	0.373508	-0.453114	0.286585
-0.395204	-0.425676	-0.317957	-0.402641	-0.67494	-0.354614	0.419653	-0.336501	0.368719	0.297298	-0.342026	0.346469	-0.249228	-0.384895	-0.407754	-0.304467	-0.35422	-0.408239	0.329633	0.338822	-0.304025	0.381403	0.369251	-0.318614	0.359939	-0.359313	-0.409877	-0.43245	-0.324819	0.416833	-0.273064	0.317078
-0.43471	-0.481606	-0.401338	-0.451716	-0.184386	-0.354191	0.445954	-0.441702	0.449782	0.367772	-0.350106	0.382917	-0.365483	-0.353941	-0.354745	-0.340754	-0.402658	-0.385531	0.424575	0.39864	-0.403354	0.376266	0.427351	-0.375009	0.262947	-0.428074	-0.482198	-0.369573	-0.363435	0.450096	-0.303564	0.290431
-0.347608	-0.498654	-0.423257	-0.415025	-0.0661556	-0.405852	0.368993	-0.341661	0.403316	0.436547	-0.328512	0.426389	-0.373371	-0.396613	-0.437307	-0.378856	-0.43235	-0.32511	0.348146	0.400031	-0.358891	0.404015	0.409111	-0.429604	0.337531	-0.332118	-0.409363	-0.448838	-0.446132	0.420866	-0.440751	0.197883
-0.546289	-0.509738	-0.447583	-0.435529	-0.518763	-0.541397	0.477951	-0.439237	0.343446	0.460369	-0.464453	0.521448	-0.424587	-0.404617	-0.437106	-0.508936	-0.522429	-0.434103	0.366925	0.512352	-0.51004	0.430721	0.362665	-0.470272	0.471407	-0.51527	-0.416406	-0.480366	-0.479343	0.439092	-0.312847	0.473498
-0.405286	-0.353968	-0.402182	-0.383735	-0.415812	-0.439011	0.449448	-0.43773	0.421173	0.408757	-0.44585	0.34551	-0.28318	-0.468898	-0.441088	-0.361118	-0.371541	-0.326288	0.37172	0.379345	-0.355926	0.378968	0.409973	-0.450297	0.463867	-0.337992	-0.43895	-0.440718	-0.369983	0.398605	-0.387802	0.484762
-0.412297	-0.40822	-0.360595	-0.35826	-0.143801	-0.464	0.441076	-0.370212	0.289866	0.258333	-0.374031	0.411347	-0.382346	-0.385872	-0.403514	-0.385259	-0.384329	-0.439273	0.42133	0.425975	-0.458795	0.362669	0.470981	-0.390374	0.495057	-0.431003	-0.395919	-0.482124	-0.437397	0.391443	-0.300302	0.288294
-0.42342	-0.448469	-0.416044	-0.328106	0.218517	-0.357021	0.342546	-0.310669	0.486528	0.438171	-0.387275	0.328016	-0.258525	-0.346771	-0.364449	-0.416097	-0.41352	-0.325054	0.420079	0.309279	-0.326752	0.542043	0.382142	-0.432495	0.264245	-0.375368	-0.472908	-0.379058	-0.401901	0.327496	-0.344882	0.352873
-0.338355	-0.465826	-0.320248	-0.346387	0.0616988	-0.22512	0.316396	-0.264226	0.239553	0.347853	-0.191096	0.306327	-0.129323	-0.318678	-0.341556	-0.277409	-0.314212	-0.394893	0.343356	0.272209	-0.21166	0.15956	0.348225	-0.322968	0.454233	-0.279973	-0.283564	-0.223328	-0.264854	0.25961	-0.310984	0.557577
-0.43879	-0.456207	-0.336538	-0.41754	-0.212163	-0.363435	0.385313	-0.320664	0.38579	0.366518	-0.449862	0.430171	-0.32595	-0.419591	-0.3953	-0.379968	-0.34183	-0.398087	0.390453	0.340658	-0.435111	0.367865	0.410882	-0.411261	0.441718	-0.407916	-0.407694	-0.434798	-0.463781	0.438328	-0.447515	0.452198
-0.392313	-0.385518	-0.372313	-0.407784	-0.491463	-0.356803	0.398184	-0.372489	0.458791	0.379638	-0.382715	0.414663	-0.329926	-0.413996	-0.417123	-0.450247	-0.401073	-0.448192	0.395472	0.424531	-0.414224	0.441761	0.342883	-0.36533	0.473024	-0.413571	-0.420121	-0.379947	-0.437391	0.417908	-0.476596	0.481094
-0.371814	-0.393044	-0.29952	-0.363689	-0.418811	-0.413279	0.318825	-0.414941	0.395295	0.2791	-0.384772	0.456877	-0.358798	-0.393785	-0.335378	-0.440294	-0.430684	-0.414285	0.348988	0.425303	-0.400276	0.416912	0.419006	-0.382831	0.317958	-0.32139	-0.417442	-0.448252	-0.415208	0.421473	-0.276301	0.354424
-0.425503	-0.328981	-0.338119	-0.378208	-0.511887	-0.356089	0.373242	-0.317496	0.336516	0.376043	-0.392595	0.425549	-0.326038	-0.364854	-0.34522	-0.35428	-0.383442	-0.324527	0.367283	0.425077	-0.442424	0.29427	0.389916	-0.327655	0.281719	-0.384627	-0.397636	-0.413394	-0.423436	0.429945	-0.290088	0.30165
-0.419894	-0.505634	-0.40272	-0.439488	-0.42973	-0.380297	0.470266	-0.422606	0.393447	0.508265	-0.405645	0.448237	-0.486467	-0.432041	-0.446641	-0.415685	-0.426814	-0.42185	0.446784	0.468598	-0.449521	0.512959	0.421098	-0.434129	0.425437	-0.442623	-0.458251	-0.442678	-0.504393	0.413818	-0.399581	0.508983
-0.444782	-0.136583	-0.445687	-0.470598	-0.842692	-0.398851	0.441574	-0.424002	0.383493	0.407659	-0.436038	0.422018	-0.542571	-0.48643	-0.445231	-0.489408	-0.480992	-0.476412	0.426069	0.575725	-0.485666	0.390031	0.475801	-0.432317	0.352492	-0.516329	-0.503503	-0.331777	-0.501095	0.500279	-0.357978	0.322506
-0.447802	-0.391805	-0.407216	-0.343966	-0.301196	-0.402643	0.395303	-0.359616	0.439182	0.490448	-0.380374	0.400535	-0.279996	-0.360763	-0.350629	-0.341385	-0.384256	-0.369034	0.461908	0.38603	-0.421295	0.324601	0.359466	-0.356246	0.34327	-0.351464	-0.431589	-0.447901	-0.417923	0.42621	-0.486208	0.453561
-0.358288	-0.212792	-0.428062	-0.446054	-0.735219	-0.335876	0.447592	-0.43237	0.312982	0.33322	-0.471004	0.465136	-0.488645	-0.421908	-0.434614	-0.432722	-0.458218	-0.38602	0.314902	0.491762	-0.385032	0.420135	0.370969	-0.349031	0.303495	-0.46425	-0.395998	-0.397494	-0.436266	0.439974	-0.362286	0.154851
-0.348077	-0.655571	-0.382586	-0.495596	0.0283886	-0.454378	0.396123	-0.336926	0.487484	0.489554	-0.472306	0.375836	-0.261877	-0.387725	-0.46478	-0.408108	-0.397916	-0.409122	0.431026	0.373469	-0.433242	0.321344	0.530969	-0.495138	0.427245	-0.41944	-0.484583	-0.430816	-0.474025	0.33718	-0.392721	0.380711
-0.381749	-0.443019	-0.424874	-0.423665	-0.34535	-0.444638	0.483004	-0.460068	0.439927	0.356429	-0.488784	0.394907	-0.490852	-0.431937	-0.42928	-0.455045	-0.442257	-0.402725	0.410291	0.409688	-0.454435	0.426217	0.429176	-0.494894	0.402718	-0.397958	-0.45167	-0.424374	-0.487511	0.512275	-0.449709	0.322838
-0.360228	-0.380788	-0.424331	-0.425866	-0.591805	-0.413512	0.386952	-0.42569	0.37646	0.376551	-0.447262	0.492926	-0.476489	-0.388376	-0.43102	-0.422147	-0.478703	-0.439779	0.398883	0.444543	-0.426648	0.309181	0.472003	-0.482653	0.472407	-0.372517	-0.493223	-0.39894	-0.439708	0.388052	-0.40583	0.392038
-0.285253	-0.402803	-0.302664	-0.390241	0.16692	-0.387358	0.373924	-0.429401	0.373709	0.467957	-0.357206	0.280951	-0.245469	-0.399188	-0.397439	-0.399499	-0.324943	-0.288692	0.377574	0.265194	-0.440502	0.158651	0.425633	-0.385735	0.313925	-0.238311	-0.314036	-0.366394	-0.314122	0.375175	-0.429263	0.275913
-0.490519	-0.171412	-0.562979	-0.41321	0.122019	-0.376826	0.511976	-0.413075	0.408146	0.51193	-0.344135	0.353593	-0.494847	-0.431096	-0.37663	-0.418821	-0.452914	-0.488026	0.215931	0.503032	-0.388779	0.207013	0.461638	-0.476665	0.523657	-0.356373	-0.287356	-0.385162	-0.412268	0.3958	-0.440169	0.527221
-0.439841	-0.289231	-0.393376	-0.409533	-0.413422	-0.43786	0.458684	-0.410053	0.466695	0.356816	-0.447492	0.360891	-0.422678	-0.456764	-0.4522	-0.463052	-0.439676	-0.397976	0.438757	0.389921	-0.395739	0.513844	0.407683	-0.3771	0.27609	-0.500745	-0.431589	-0.442498	-0.454907	0.427562	-0.487043	0.462811
-0.411651	-0.490543	-0.382616	-0.366561	0.118514	-0.435852	0.397865	-0.379027	0.44211	0.308555	-0.393261	0.409652	-0.237824	-0.401861	-0.463987	-0.409206	-0.341587	-0.399781	0.406309	0.373535	-0.311669	0.25537	0.425411	-0.340825	0.288116	-0.376936	-0.404936	-0.402393	-0.396829	0.388312	-0.542574	0.337217
-0.332933	-0.409253	-0.342058	-0.347037	-0.198492	-0.394821	0.399577	-0.426286	0.380526	0.405932	-0.379962	0.40688	-0.339059	-0.407599	-0.426087	-0.408996	-0.391395	-0.344797	0.381055	0.338453	-0.376109	0.266389	0.37608	-0.38992	0.326295	-0.393038	-0.410182	-0.436827	-0.380562	0.379086	-0.443948	0.422712
-0.458915	-0.40426	-0.355117	-0.41897	-0.41151	-0.495576	0.475917	-0.394783	0.282537	0.296897	-0.355896	0.398619	-0.352512	-0.456041	-0.332669	-0.378813	-0.45445	-0.423306	0.306874	0.471254	-0.405669	0.481522	0.397921	-0.445468	0.290995	-0.455513	-0.396829	-0.423924	-0.355048	0.344716	-0.350478	0.416204
-0.463686	-0.461414	-0.432715	-0.364354	0.0573214	-0.384144	0.466479	-0.405067	0.471139	0.455712	-0.440045	0.428275	-0.419049	-0.483004	-0.434818	-0.486289	-0.44368	-0.411306	0.410734	0.446169	-0.446465	0.453066	0.44508	-0.431271	0.479995	-0.403873	-0.487727	-0.440801	-0.500325	0.362027	-0.471936	0.332678
-0.369318	-0.369113	-0.441644	-0.396899	-0.506525	-0.447675	0.36189	-0.331508	0.322902	0.483375	-0.304056	0.402558	-0.398451	-0.341294	-0.415558	-0.30165	-0.310142	-0.351068	0.340714	0.30766	-0.411152	0.328076	0.378632	-0.320797	0.325902	-0.404883	-0.414228	-0.326455	-0.363366	0.430019	-0.304643	0.385588
-0.443164	-0.395642	-0.458036	-0.460591	-0.284202	-0.472582	0.473491	-0.450554	0.408698	0.353673	-0.429689	0.490057	-0.479147	-0.474238	-0.399827	-0.4697	-0.456686	-0.408641	0.476645	0.440162	-0.505924	0.381703	0.423881	-0.428398	0.453474	-0.41834	-0.375897	-0.488574	-0.497303	0.394248	-0.45986	0.439513
-0.419353	-0.515015	-0.408414	-0.432906	0.0314322	-0.447059	0.439996	-0.468154	0.472815	0.471073	-0.45379	0.450245	-0.410629	-0.411142	-0.408994	-0.456449	-0.434738	-0.479597	0.486755	0.396186	-0.471117	0.325709	0.465577	-0.412667	0.361524	-0.512111	-0.486194	-0.477603	-0.486544	0.471079	-0.515306	0.463297
-0.429136	-0.531647	-0.442939	-0.409332	-0.246254	-0.505244	0.49436	-0.461813	0.449929	0.448309	-0.434127	0.48376	-0.436226	-0.44922	-0.449377	-0.443719	-0.38773	-0.488865	0.397076	0.484916	-0.362202	0.348926	0.397327	-0.424548	0.325905	-0.44156	-0.481908	-0.463637	-0.43653	0.441949	-0.401296	0.462187
-0.423476	-0.475829	-0.465474	-0.480952	-0.141298	-0.382646	0.441197	-0.453458	0.475926	0.51451	-0.489675	0.48223	-0.341058	-0.484774	-0.434813	-0.484301	-0.450387	-0.448633	0.474188	0.458406	-0.450327	0.478197	0.468685	-0.47947	0.488352	-0.417544	-0.501193	-0.478596	-0.512095	0.438088	-0.470796	0.377699
-0.412838	-0.346335	-0.455926	-0.373743	-0.150956	-0.385256	0.479318	-0.439356	0.462329	0.369862	-0.394282	0.428077	-0.475629	-0.368143	-0.450269	-0.437389	-0.45122	-0.446413	0.350913	0.460177	-0.426249	0.397743	0.486245	-0.441794	0.44356	-0.465706	-0.435987	-0.398719	-0.452276	0.405532	-0.45201	0.428135
-0.401887	-0.339553	-0.467235	-0.465974	-0.276067	-0.448637	0.459373	-0.403713	0.464232	0.279489	-0.509884	0.441121	-0.410158	-0.392774	-0.389334	-0.393809	-0.46801	-0.477544	0.402052	0.456163	-0.417346	0.408871	0.488692	-0.41839	0.361897	-0.452148	-0.478819	-0.453284	-0.448	0.416476	-0.377973	0.439638
-0.442649	-0.463138	-0.394462	-0.402915	-0.278032	-0.498913	0.388426	-0.462391	0.463144	0.349575	-0.483031	0.480564	-0.453604	-0.475387	-0.462656	-0.435023	-0.476494	-0.429402	0.49055	0.431368	-0.484645	0.510483	0.459599	-0.423434	0.359336	-0.386634	-0.447611	-0.444071	-0.457461	0.459551	-0.36607	0.389828
-0.464548	-0.240148	-0.392321	-0.463588	-0.527656	-0.48286	0.486881	-0.379902	0.49451	0.229458	-0.477687	0.476647	-0.294455	-0.429354	-0.383289	-0.487922	-0.460075	-0.392338	0.439608	0.531784	-0.444504	0.462668	0.42497	-0.465772	0.381121	-0.34691	-0.41064	-0.394911	-0.401125	0.502933	-0.392699	0.604435
-0.439569	-0.426866	-0.410564	-0.37787	-0.0537834	-0.477982	0.490376	-0.4512	0.486128	0.348263	-0.458247	0.458571	-0.389597	-0.468836	-0.391664	-0.412036	-0.431505	-0.417968	0.487095	0.396693	-0.478233	0.506101	0.384958	-0.454742	0.410877	-0.414381	-0.413354	-0.462379	-0.460193	0.449997	-0.557798	0.388312
-0.45812	-0.410543	-0.4414	-0.397179	-0.333414	-0.421598	0.466796	-0.448983	0.407754	0.365024	-0.383814	0.423461	-0.350806	-0.362094	-0.406683	-0.376713	-0.46624	-0.497198	0.452784	0.367464	-0.428934	0.459603	0.440771	-0.359921	0.476341	-0.388843	-0.464605	-0.412034	-0.485914	0.356782	-0.40189	0.44044
-0.535294	-0.381242	-0.276639	-0.49685	-0.671949	-0.471602	0.417495	-0.471042	0.460215	0.4034	-0.52722	0.512554	-0.424822	-0.42426	-0.420961	-0.424935	-0.521039	-0.465677	0.466738	0.58827	-0.444402	0.469103	0.370767	-0.418334	0.59434	-0.503225	-0.494466	-0.320003	-0.473247	0.353536	-0.347477	0.394082
-0.475933	-0.406563	-0.372681	-0.433826	-0.426442	-0.421453	0.435299	-0.428492	0.514255	0.518484	-0.46007	0.407975	-0.437731	-0.447684	-0.4178	-0.40385	-0.416781	-0.431631	0.397481	0.432724	-0.446588	0.486484	0.471072	-0.371091	0.442053	-0.458362	-0.395089	-0.499076	-0.425194	0.494356	-0.471976	0.497317
-0.410169	-0.321319	-0.44608	-0.298229	-0.169977	-0.392897	0.411019	-0.429115	0.438562	0.422994	-0.297959	0.359851	-0.415278	-0.390748	-0.393416	-0.314471	-0.398646	-0.376075	0.383961	0.333764	-0.410005	0.273782	0.358533	-0.379856	0.350711	-0.297969	-0.350114	-0.365476	-0.348408	0.429016	-0.339741	0.29225
-0.402038	-0.519817	-0.336691	-0.407898	-0.788436	-0.485747	0.482446	-0.451179	0.429434	0.214499	-0.322905	0.419497	-0.353924	-0.576267	-0.489866	-0.440682	-0.407596	-0.486964	0.322948	0.246396	-0.446182	0.526214	0.372779	-0.51793	0.525828	-0.353263	-0.479592	-0.471536	-0.32869	0.522109	-0.497724	0.278546
-0.442641	-0.417181	-0.434414	-0.362052	-0.664452	-0.442087	0.321816	-0.434482	0.253301	0.256144	-0.356555	0.451197	-0.354461	-0.317809	-0.327881	-0.406915	-0.31136	-0.354964	0.423021	0.432171	-0.452384	0.284071	0.471344	-0.375686	0.321618	-0.3055	-0.355841	-0.304826	-0.335667	0.386187	-0.176212	0.47523
-0.315226	-0.457659	-0.448743	-0.434794	-0.526853	-0.428388	0.402939	-0.354992	0.364865	0.390252	-0.411313	0.392045	-0.309794	-0.459193	-0.35639	-0.335017	-0.386979	-0.359683	0.425023	0.350229	-0.377774	0.271421	0.413432	-0.355631	0.359177	-0.319596	-0.443584	-0.368687	-0.355506	0.341882	-0.365448	0.343367
-0.374355	-0.209278	-0.378688	-0.359191	-0.656305	-0.368016	0.358158	-0.303417	0.197294	0.355783	-0.342531	0.282827	-0.34247	-0.257549	-0.23435	-0.304102	-0.391098	-0.380092	0.238496	0.281793	-0.186609	0.325487	0.386703	-0.235525	0.171359	-0.248836	-0.299619	-0.254068	-0.33135	0.221051	-0.38308	0.365931
-0.42649	-0.418909	-0.411078	-0.454767	-0.465021	-0.496614	0.382867	-0.496295	0.38856	0.437168	-0.382921	0.39959	-0.520492	-0.39014	-0.386997	-0.46206	-0.48362	-0.399591	0.411992	0.451146	-0.434298	0.443452	0.421265	-0.451822	0.394191	-0.360287	-0.442824	-0.422887	-0.378519	0.43184	-0.435664	0.404881
-0.505884	-0.518135	-0.473737	-0.469126	0.0368014	-0.415719	0.483427	-0.428086	0.454865	0.38854	-0.411326	0.386818	-0.432615	-0.427253	-0.45154	-0.412017	-0.486497	-0.461903	0.473415	0.428816	-0.420038	0.371538	0.388202	-0.453554	0.525308	-0.404145	-0.384133	-0.504035	-0.456603	0.412233	-0.510298	0.382418
-0.353029	-0.548502	-0.351249	-0.402718	-0.18448	-0.412166	0.464028	-0.355347	0.393357	0.398274	-0.408343	0.357146	-0.311873	-0.437542	-0.411715	-0.41429	-0.443881	-0.475742	0.346898	0.418867	-0.425832	0.526319	0.412661	-0.44158	0.485693	-0.479218	-0.335975	-0.498832	-0.384211	0.475469	-0.465944	0.386514
-0.384361	-0.368245	-0.39354	-0.461643	-0.0478577	-0.387335	0.416006	-0.397663	0.34765	0.391013	-0.362999	0.394571	-0.419441	-0.42371	-0.43633	-0.427926	-0.40675	-0.371617	0.33311	0.364055	-0.38075	0.402846	0.418129	-0.421375	0.380994	-0.402922	-0.352162	-0.389333	-0.429268	0.421958	-0.411871	0.24842
-0.355697	-0.522463	-0.494478	-0.337845	0.259307	-0.543795	0.3971	-0.260096	0.340243	0.56018	-0.329308	0.330147	-0.525241	-0.413408	-0.428312	-0.313117	-0.401414	-0.344145	0.303858	0.458072	-0.257092	0.531111	0.509408	-0.402806	0.446439	-0.253052	-0.393362	-0.484401	-0.427933	0.379226	-0.622104	0.314771
-0.392182	-0.499812	-0.393979	-0.440353	-0.0844263	-0.4577	0.34883	-0.506082	0.390561	0.517543	-0.348508	0.395057	-0.383535	-0.355186	-0.405402	-0.345748	-0.428371	-0.407838	0.449566	0.394111	-0.524509	0.400219	0.406151	-0.423092	0.237451	-0.346148	-0.492461	-0.465332	-0.398517	0.446659	-0.511497	0.404254
-0.342737	-0.341496	-0.462287	-0.383334	-0.12558	-0.417737	0.381038	-0.437933	0.417611	0.386485	-0.391477	0.441521	-0.376953	-0.486838	-0.439689	-0.347446	-0.420135	-0.423387	0.418289	0.458205	-0.38649	0.352149	0.379989	-0.399952	0.27859	-0.334641	-0.43883	-0.453998	-0.468847	0.448427	-0.462255	0.397233
-0.43519	-0.341339	-0.404128	-0.356953	-0.575929	-0.432146	0.364433	-0.397145	0.386865	0.418281	-0.446121	0.39097	-0.487887	-0.329915	-0.470083	-0.372548	-0.444644	-0.438797	0.447608	0.489053	-0.348715	0.469857	0.426544	-0.41404	0.427915	-0.393328	-0.459076	-0.369787	-0.387418	0.339279	-0.402628	0.455527
-0.451196	-0.263714	-0.295659	-0.355186	0.0774879	-0.406585	0.331147	-0.308656	0.412833	0.220893	-0.35889	0.317857	-0.339802	-0.322975	-0.448789	-0.359136	-0.376915	-0.331986	0.261094	0.390385	-0.313591	0.373612	0.232537	-0.390228	0.4053	-0.348406	-0.406289	-0.351721	-0.396976	0.399591	-0.275969	0.518609
-0.437806	-0.416699	-0.505031	-0.433712	-0.497056	-0.423403	0.420465	-0.423673	0.339151	0.437359	-0.343756	0.339808	-0.436115	-0.43171	-0.406376	-0.328575	-0.366173	-0.444347	0.295736	0.374798	-0.380411	0.455635	0.405252	-0.316176	0.169658	-0.456264	-0.353539	-0.322118	-0.329632	0.365023	-0.405394	0.303155
-0.512715	-0.409732	-0.43628	-0.450111	-0.0908538	-0.376573	0.460175	-0.348102	0.422274	0.416787	-0.487953	0.393096	-0.316378	-0.391025	-0.451349	-0.431947	-0.471685	-0.355992	0.476704	0.44206	-0.430261	0.304996	0.391673	-0.503119	0.461635	-0.527499	-0.445863	-0.488224	-0.477862	0.482074	-0.423631	0.56253
-0.425612	-0.31336	-0.370721	-0.481292	-0.534465	-0.413714	0.378275	-0.395389	0.329842	0.468698	-0.451792	0.395734	-0.417797	-0.432069	-0.381527	-0.377607	-0.406736	-0.40764	0.356136	0.469071	-0.395926	0.419307	0.446775	-0.443751	0.52572	-0.460896	-0.46805	-0.431927	-0.433724	0.429338	-0.418011	0.557883
-0.461284	-0.386914	-0.385256	-0.387459	-0.63913	-0.374552	0.378069	-0.425158	0.458076	0.267176	-0.463031	0.394655	-0.406815	-0.445533	-0.405557	-0.449804	-0.441884	-0.39126	0.386086	0.415019	-0.407153	0.45192	0.415721	-0.391021	0.254315	-0.458472	-0.489484	-0.384413	-0.416771	0.435813	-0.416271	0.495982
-0.324929	-0.490643	-0.321515	-0.413285	-0.400709	-0.406949	0.40124	-0.334481	0.328655	0.368191	-0.411982	0.37953	-0.369268	-0.35859	-0.258271	-0.400482	-0.421085	-0.304068	0.340563	0.34882	-0.395779	0.388931	0.366998	-0.413323	0.165937	-0.265197	-0.390831	-0.459401	-0.364236	0.363343	-0.392652	0.377239
-0.430439	-0.567912	-0.463472	-0.402573	0.137329	-0.467461	0.434897	-0.368546	0.422194	0.289518	-0.459609	0.430784	-0.546331	-0.40003	-0.332593	-0.455802	-0.406586	-0.378855	0.437148	0.466032	-0.459862	0.486298	0.403816	-0.430721	0.396495	-0.482214	-0.411455	-0.512085	-0.419579	0.478954	-0.478052	0.0708231
-0.389774	-0.438346	-0.33164	-0.428659	-0.381341	-0.362677	0.306058	-0.335194	0.33219	0.29726	-0.37139	0.336772	-0.285892	-0.327715	-0.353891	-0.350529	-0.404205	-0.340408	0.388394	0.28677	-0.371426	0.224905	0.357357	-0.32536	0.353069	-0.401552	-0.415057	-0.350342	-0.327845	0.309966	-0.370713	0.358146
